svm_type spoc
kernel_type rbf
gamma 0.0078125
nr_class 11
total_sv 2246
label 0 1 2 3 4 5 6 7 8 9 10
nr_sv 73 518 132 34 110 193 126 226 276 410 148
SV
1.025217336552279 -0.29617102574271 -0.001040578274457423 0 0 0 0 -0.1963378550760203 -0.1643750695162152 -0.07384197328663296 -0.2934508346562428 1:1 4:1 5:1 8:1 10:1 11:1 16:1 18:1 19:1 20:1 21:1 25:1 27:1 29:1 30:1 31:1 35:1 36:1 38:1 40:1 41:1 42:1 49:1 50:1 51:1 53:1 54:1 58:1 60:1 61:1 63:1 65:1 67:1 70:1 72:1 76:1 81:1 85:1 87:1 89:1 91:1 93:1 94:1 96:1 98:1 103:1 106:1 107:1 112:1 113:1 114:1 117:1 119:1 120:1 123:1 124:1 125:1 126:1 127:1 128:1 129:1 131:1 132:1 133:1 134:1 137:1 138:1 139:1 140:1 142:1 143:1 147:1 150:1 151:1 152:1 155:1 158:1 166:1 167:1 168:1 169:1 170:1 171:1 172:1 173:1 177:1 180:1 182:1 185:1 189:1 190:1 191:1 192:1 193:1 195:1 196:1 198:1 199:1 202:1 203:1 205:1 206:1 208:1 209:1 210:1 213:1 214:1 216:1 220:1 221:1 223:1 227:1 230:1 232:1 235:1 236:1 240:1 241:1 242:1 243:1 246:1 249:1 250:1 252:1 254:1 255:1 256:1 257:1 259:1 263:1 266:1 267:1 268:1 274:1 275:1 276:1 277:1 279:1 280:1 283:1 284:1 287:1 290:1 292:1 293:1 294:1 301:1 303:1 309:1 310:1 311:1 318:1 319:1 320:1 321:1 322:1 324:1 326:1 330:1 331:1 332:1 334:1 335:1 336:1 338:1 340:1 341:1 351:1 359:1 365:1 373:1 374:1 376:1 383:1 385:1 389:1 396:1 406:1 415:1 417:1 432:1 433:1 434:1 444:1 446:1 447:1 449:1 464:1 471:1 477:1 481:1 489:1 492:1 494:1 499:1 503:1 504:1 507:1 511:1 523:1 524:1 535:1 538:1 539:1 541:1 549:1 568:1 572:1 578:1 593:1 596:1 597:1 598:1 606:1 608:1 611:1 612:1 613:1 620:1 621:1 622:1 641:1 643:1 662:1 663:1 664:1 682:1 686:1 691:1 704:1 705:1 707:1 708:1 710:1 721:1 726:1 734:1 735:1 742:1 747:1 753:1 761:1 762:1 763:1 765:1 768:1 769:1 770:1 773:1 776:1 779:1 783:1 784:1 787:1 788:1 797:1 806:1 808:1 817:1 818:1 829:1 830:1 846:1 847:1 859:1 868:1 870:1 871:1 874:1 882:1 883:1 888:1 889:1 902:1 903:1 905:1 908:1 910:1 911:1 918:1 926:1 929:1 933:1 938:1 940:1 942:1 950:1 965:1 973:1 978:1 986:1 988:1 991:1 992:1 993:1 996:1 998:1 1000:1 1001:1 1002:1 1003:1 1004:1 1007:1 1008:1 1009:1 1021:1 1023:1 1038:1 1056:1 1074:1 1075:1 1079:1 1083:1 1090:1 1091:1 1097:1 1100:1 1109:1 1111:1 1120:1 1121:1 1135:1 1137:1 1149:1 1152:1 1154:1 1160:1 1173:1 1176:1 1190:1 1191:1 1192:1 1196:1 1199:1 1203:1 1223:1 1248:1 1253:1 1258:1 1262:1 1277:1 1290:1 1292:1 1294:1 1295:1 1296:1 1297:1 1300:1 1301:1 1305:1 1306:1 1310:1 1311:1 1319:1 1321:1 1322:1 1327:1 1331:1 1332:1 1336:1 1338:1 1340:1 1353:1 1360:1 1361:1 1362:1 1363:1 1364:1 1365:1 1383:1 1394:1 1409:1 1427:1 1428:1 1429:1 1433:1 1436:1 1449:1 1453:1 1454:1 1455:1 1459:1 1462:1 1463:1 1471:1 1493:1 1500:1 1501:1 
2 -0.5961375049766506 0 0 0 -0.8223959084167891 0 0 -0.1169381679978192 -0.4645284186087411 0 1:1 4:1 5:1 8:1 10:1 11:1 16:1 19:1 21:1 25:1 27:1 29:1 30:1 31:1 35:1 36:1 38:1 40:1 41:1 42:1 49:1 50:1 51:1 53:1 54:1 58:1 60:1 61:1 63:1 65:1 67:1 70:1 72:1 76:1 81:1 85:1 89:1 91:1 93:1 103:1 105:1 106:1 107:1 112:1 114:1 117:1 119:1 120:1 123:1 125:1 126:1 127:1 128:1 129:1 131:1 132:1 133:1 134:1 137:1 138:1 139:1 140:1 142:1 143:1 147:1 150:1 151:1 152:1 155:1 158:1 166:1 167:1 168:1 169:1 170:1 171:1 172:1 173:1 177:1 180:1 182:1 185:1 189:1 190:1 191:1 192:1 193:1 195:1 196:1 198:1 199:1 202:1 203:1 204:1 205:1 206:1 208:1 209:1 210:1 213:1 214:1 216:1 220:1 221:1 223:1 228:1 229:1 230:1 232:1 235:1 236:1 240:1 241:1 242:1 243:1 246:1 249:1 250:1 252:1 253:1 254:1 255:1 256:1 259:1 263:1 266:1 267:1 268:1 271:1 274:1 275:1 276:1 277:1 279:1 280:1 283:1 284:1 287:1 290:1 292:1 293:1 294:1 301:1 303:1 309:1 310:1 311:1 318:1 319:1 320:1 321:1 322:1 324:1 326:1 330:1 331:1 332:1 334:1 335:1 336:1 338:1 340:1 341:1 365:1 373:1 374:1 383:1 385:1 396:1 406:1 415:1 434:1 436:1 460:1 471:1 477:1 479:1 481:1 489:1 490:1 491:1 506:1 523:1 524:1 535:1 577:1 593:1 596:1 597:1 598:1 611:1 612:1 613:1 620:1 621:1 622:1 643:1 662:1 664:1 668:1 682:1 684:1 685:1 686:1 691:1 704:1 710:1 734:1 742:1 747:1 769:1 770:1 773:1 776:1 779:1 783:1 784:1 787:1 788:1 797:1 808:1 818:1 829:1 830:1 859:1 868:1 882:1 883:1 888:1 889:1 902:1 903:1 905:1 908:1 910:1 911:1 926:1 929:1 933:1 938:1 942:1 950:1 978:1 991:1 992:1 993:1 996:1 1000:1 1001:1 1002:1 1004:1 1007:1 1008:1 1009:1 1020:1 1021:1 1023:1 1056:1 1074:1 1075:1 1079:1 1097:1 1112:1 1120:1 1121:1 1137:1 1152:1 1160:1 1173:1 1176:1 1186:1 1192:1 1199:1 1204:1 1223:1 1248:1 1253:1 1258:1 1277:1 1292:1 1297:1 1305:1 1306:1 1310:1 1321:1 1340:1 1353:1 1360:1 1361:1 1362:1 1363:1 1364:1 1383:1 1394:1 1409:1 1427:1 1428:1 1429:1 1433:1 1436:1 1449:1 1453:1 1459:1 1471:1 1493:1 1500:1 1501:1 
1.217729965873891 -1.153132352759226 0 0 0 -0.06459761311466572 0 0 0 0 0 1:1 4:1 5:1 8:1 10:1 11:1 16:1 17:1 18:1 19:1 20:1 21:1 22:1 23:1 25:1 27:1 28:1 29:1 30:1 31:1 35:1 36:1 38:1 40:1 41:1 42:1 49:1 50:1 53:1 54:1 58:1 60:1 61:1 63:1 65:1 67:1 70:1 72:1 76:1 81:1 85:1 89:1 91:1 93:1 94:1 103:1 106:1 107:1 112:1 114:1 117:1 119:1 120:1 123:1 125:1 126:1 127:1 128:1 129:1 131:1 132:1 133:1 134:1 137:1 138:1 139:1 140:1 142:1 143:1 147:1 148:1 150:1 151:1 152:1 155:1 158:1 166:1 167:1 168:1 169:1 170:1 171:1 172:1 173:1 177:1 180:1 182:1 185:1 189:1 190:1 191:1 192:1 193:1 195:1 196:1 198:1 199:1 202:1 203:1 205:1 206:1 208:1 209:1 210:1 212:1 213:1 214:1 215:1 216:1 220:1 221:1 223:1 227:1 230:1 232:1 235:1 236:1 240:1 241:1 242:1 243:1 246:1 248:1 249:1 250:1 252:1 253:1 254:1 255:1 256:1 259:1 263:1 266:1 267:1 268:1 272:1 274:1 275:1 276:1 277:1 279:1 280:1 283:1 284:1 287:1 288:1 290:1 292:1 293:1 294:1 301:1 303:1 309:1 310:1 311:1 318:1 319:1 320:1 321:1 322:1 324:1 326:1 330:1 331:1 332:1 334:1 335:1 336:1 338:1 340:1 341:1 365:1 370:1 373:1 374:1 376:1 378:1 383:1 384:1 386:1 387:1 388:1 390:1 391:1 392:1 396:1 417:1 422:1 430:1 432:1 433:1 434:1 436:1 440:1 459:1 460:1 461:1 464:1 471:1 477:1 481:1 483:1 489:1 490:1 491:1 492:1 494:1 499:1 500:1 503:1 507:1 511:1 512:1 523:1 524:1 527:1 529:1 534:1 567:1 570:1 575:1 578:1 593:1 596:1 597:1 598:1 599:1 608:1 611:1 612:1 613:1 620:1 621:1 622:1 625:1 626:1 627:1 628:1 629:1 640:1 641:1 643:1 649:1 654:1 662:1 663:1 664:1 665:1 668:1 673:1 682:1 683:1 684:1 686:1 691:1 698:1 704:1 706:1 708:1 710:1 721:1 724:1 727:1 731:1 734:1 735:1 742:1 747:1 767:1 768:1 769:1 770:1 773:1 776:1 779:1 783:1 784:1 787:1 788:1 797:1 801:1 808:1 817:1 818:1 829:1 830:1 844:1 845:1 847:1 859:1 863:1 864:1 868:1 870:1 874:1 877:1 882:1 883:1 889:1 902:1 903:1 905:1 908:1 910:1 911:1 912:1 913:1 918:1 926:1 929:1 930:1 933:1 934:1 937:1 938:1 940:1 942:1 946:1 950:1 951:1 966:1 974:1 976:1 978:1 992:1 993:1 994:1 996:1 998:1 1000:1 1001:1 1002:1 1003:1 1004:1 1007:1 1008:1 1009:1 1010:1 1011:1 1020:1 1021:1 1023:1 1038:1 1044:1 1052:1 1054:1 1056:1 1059:1 1061:1 1062:1 1066:1 1074:1 1075:1 1079:1 1080:1 1091:1 1096:1 1097:1 1100:1 1109:1 1111:1 1112:1 1120:1 1121:1 1126:1 1137:1 1138:1 1139:1 1152:1 1159:1 1160:1 1173:1 1176:1 1177:1 1179:1 1180:1 1190:1 1192:1 1196:1 1199:1 1203:1 1204:1 1210:1 1222:1 1223:1 1225:1 1248:1 1253:1 1258:1 1262:1 1267:1 1268:1 1270:1 1277:1 1282:1 1286:1 1291:1 1292:1 1293:1 1294:1 1296:1 1297:1 1300:1 1305:1 1306:1 1307:1 1310:1 1311:1 1319:1 1320:1 1321:1 1327:1 1331:1 1332:1 1337:1 1340:1 1348:1 1351:1 1353:1 1360:1 1361:1 1362:1 1363:1 1364:1 1368:1 1383:1 1394:1 1409:1 1410:1 1427:1 1428:1 1429:1 1433:1 1436:1 1441:1 1449:1 1452:1 1453:1 1455:1 1459:1 1462:1 1468:1 1470:1 1471:1 1493:1 1496:1 1497:1 1498:1 1500:1 1501:1 
0.7173894122420086 -0.563810396589203 0 0 -0.1119416598701481 -0.04163735578265726 0 0 0 0 0 1:1 3:1 4:1 5:1 8:1 10:1 11:1 16:1 18:1 19:1 20:1 21:1 23:1 24:1 25:1 27:1 29:1 30:1 31:1 35:1 36:1 38:1 40:1 41:1 42:1 49:1 50:1 51:1 53:1 54:1 58:1 60:1 61:1 63:1 65:1 67:1 70:1 72:1 76:1 78:1 79:1 80:1 81:1 85:1 89:1 91:1 93:1 94:1 96:1 98:1 99:1 101:1 103:1 105:1 106:1 107:1 112:1 114:1 117:1 119:1 120:1 123:1 124:1 125:1 126:1 127:1 128:1 129:1 130:1 131:1 132:1 133:1 134:1 135:1 137:1 138:1 139:1 140:1 142:1 143:1 145:1 147:1 148:1 150:1 151:1 152:1 155:1 158:1 166:1 167:1 168:1 169:1 170:1 171:1 172:1 173:1 177:1 180:1 182:1 185:1 189:1 190:1 191:1 192:1 193:1 195:1 196:1 198:1 199:1 202:1 203:1 204:1 205:1 206:1 208:1 209:1 210:1 212:1 213:1 214:1 216:1 220:1 221:1 223:1 227:1 228:1 229:1 230:1 232:1 235:1 236:1 240:1 241:1 242:1 243:1 246:1 249:1 250:1 252:1 254:1 255:1 256:1 257:1 259:1 263:1 266:1 267:1 268:1 269:1 270:1 273:1 274:1 275:1 276:1 277:1 279:1 280:1 283:1 284:1 287:1 289:1 290:1 291:1 292:1 293:1 294:1 299:1 301:1 303:1 309:1 310:1 311:1 318:1 319:1 320:1 321:1 322:1 324:1 326:1 327:1 330:1 331:1 332:1 334:1 335:1 336:1 338:1 340:1 341:1 359:1 365:1 370:1 373:1 374:1 376:1 378:1 382:1 383:1 384:1 385:1 387:1 388:1 391:1 396:1 406:1 415:1 417:1 432:1 433:1 434:1 435:1 436:1 444:1 445:1 449:1 459:1 461:1 463:1 471:1 477:1 478:1 479:1 481:1 483:1 489:1 490:1 491:1 494:1 496:1 497:1 499:1 503:1 511:1 512:1 513:1 515:1 516:1 517:1 518:1 520:1 521:1 522:1 523:1 524:1 527:1 549:1 567:1 568:1 570:1 575:1 577:1 578:1 583:1 592:1 593:1 596:1 597:1 598:1 599:1 600:1 607:1 608:1 611:1 612:1 613:1 620:1 621:1 622:1 626:1 640:1 641:1 643:1 647:1 648:1 649:1 651:1 662:1 663:1 664:1 668:1 681:1 682:1 686:1 691:1 698:1 700:1 704:1 705:1 707:1 708:1 710:1 718:1 726:1 727:1 728:1 731:1 734:1 735:1 742:1 747:1 760:1 761:1 762:1 763:1 769:1 770:1 773:1 776:1 779:1 783:1 784:1 787:1 788:1 797:1 805:1 808:1 816:1 817:1 818:1 829:1 830:1 844:1 846:1 847:1 852:1 854:1 857:1 859:1 860:1 861:1 863:1 868:1 870:1 871:1 874:1 877:1 881:1 882:1 883:1 889:1 898:1 901:1 902:1 903:1 905:1 908:1 910:1 911:1 912:1 913:1 919:1 926:1 929:1 930:1 931:1 933:1 934:1 937:1 938:1 940:1 942:1 949:1 950:1 951:1 965:1 970:1 973:1 978:1 986:1 988:1 989:1 991:1 992:1 993:1 994:1 996:1 998:1 1000:1 1001:1 1002:1 1003:1 1004:1 1007:1 1008:1 1009:1 1011:1 1020:1 1021:1 1023:1 1037:1 1038:1 1039:1 1040:1 1041:1 1044:1 1049:1 1056:1 1061:1 1062:1 1074:1 1075:1 1079:1 1083:1 1091:1 1094:1 1095:1 1096:1 1097:1 1101:1 1108:1 1109:1 1111:1 1112:1 1113:1 1117:1 1120:1 1121:1 1127:1 1129:1 1130:1 1135:1 1136:1 1137:1 1138:1 1139:1 1143:1 1148:1 1149:1 1150:1 1152:1 1153:1 1154:1 1156:1 1157:1 1160:1 1166:1 1167:1 1172:1 1176:1 1177:1 1178:1 1180:1 1190:1 1191:1 1192:1 1195:1 1196:1 1199:1 1200:1 1203:1 1204:1 1210:1 1219:1 1220:1 1221:1 1222:1 1223:1 1224:1 1225:1 1248:1 1249:1 1253:1 1254:1 1258:1 1262:1 1263:1 1268:1 1277:1 1284:1 1292:1 1294:1 1295:1 1297:1 1300:1 1301:1 1305:1 1306:1 1310:1 1311:1 1319:1 1320:1 1321:1 1325:1 1327:1 1330:1 1331:1 1332:1 1335:1 1336:1 1338:1 1340:1 1341:1 1342:1 1345:1 1348:1 1349:1 1350:1 1351:1 1353:1 1360:1 1361:1 1362:1 1363:1 1364:1 1367:1 1375:1 1376:1 1377:1 1383:1 1384:1 1386:1 1394:1 1409:1 1414:1 1427:1 1428:1 1429:1 1431:1 1433:1 1436:1 1441:1 1442:1 1443:1 1449:1 1452:1 1453:1 1455:1 1459:1 1462:1 1470:1 1471:1 1493:1 1496:1 1498:1 1499:1 1500:1 1501:1 
0.757595025269191 -0.7508197303670143 -0.006775294902176432 0 0 0 0 0 0 0 0 1:1 3:1 4:1 5:1 8:1 10:1 11:1 16:1 18:1 19:1 20:1 21:1 23:1 24:1 25:1 27:1 29:1 30:1 31:1 35:1 36:1 38:1 40:1 41:1 42:1 48:1 49:1 50:1 51:1 53:1 54:1 58:1 60:1 61:1 63:1 65:1 67:1 70:1 72:1 73:1 75:1 76:1 78:1 81:1 85:1 89:1 91:1 93:1 94:1 99:1 103:1 105:1 106:1 107:1 112:1 113:1 114:1 117:1 119:1 120:1 123:1 124:1 125:1 126:1 127:1 128:1 129:1 130:1 131:1 132:1 133:1 134:1 137:1 138:1 139:1 140:1 142:1 143:1 147:1 148:1 150:1 151:1 152:1 155:1 158:1 161:1 166:1 167:1 168:1 169:1 170:1 171:1 172:1 173:1 177:1 180:1 182:1 185:1 189:1 190:1 191:1 192:1 193:1 195:1 196:1 198:1 199:1 202:1 203:1 204:1 205:1 206:1 208:1 209:1 210:1 213:1 214:1 216:1 220:1 221:1 223:1 227:1 228:1 229:1 230:1 232:1 235:1 236:1 240:1 241:1 242:1 243:1 246:1 249:1 250:1 252:1 253:1 254:1 255:1 256:1 257:1 258:1 259:1 263:1 266:1 267:1 268:1 270:1 271:1 273:1 274:1 275:1 276:1 277:1 279:1 280:1 283:1 284:1 287:1 289:1 290:1 291:1 292:1 293:1 294:1 299:1 301:1 303:1 305:1 309:1 310:1 311:1 317:1 318:1 319:1 320:1 321:1 322:1 324:1 325:1 326:1 330:1 331:1 332:1 334:1 335:1 336:1 338:1 340:1 341:1 351:1 359:1 365:1 370:1 373:1 374:1 376:1 378:1 382:1 383:1 384:1 385:1 387:1 388:1 389:1 391:1 392:1 396:1 406:1 412:1 413:1 415:1 417:1 419:1 422:1 430:1 432:1 433:1 434:1 435:1 436:1 440:1 441:1 444:1 445:1 450:1 459:1 460:1 463:1 471:1 477:1 479:1 481:1 489:1 490:1 494:1 496:1 497:1 499:1 503:1 504:1 507:1 511:1 512:1 513:1 515:1 520:1 521:1 522:1 523:1 524:1 527:1 530:1 531:1 535:1 541:1 549:1 567:1 568:1 570:1 572:1 574:1 575:1 576:1 577:1 578:1 582:1 583:1 592:1 593:1 596:1 597:1 598:1 599:1 600:1 607:1 608:1 611:1 612:1 613:1 620:1 621:1 622:1 626:1 638:1 640:1 641:1 643:1 647:1 648:1 659:1 662:1 663:1 664:1 668:1 682:1 684:1 686:1 691:1 698:1 700:1 702:1 704:1 705:1 706:1 708:1 710:1 726:1 727:1 728:1 731:1 734:1 735:1 742:1 747:1 757:1 760:1 761:1 762:1 763:1 765:1 768:1 769:1 770:1 773:1 776:1 779:1 781:1 783:1 784:1 785:1 787:1 788:1 797:1 805:1 808:1 816:1 817:1 818:1 829:1 830:1 837:1 844:1 845:1 846:1 847:1 854:1 857:1 859:1 860:1 861:1 863:1 864:1 868:1 870:1 871:1 874:1 877:1 882:1 883:1 889:1 898:1 901:1 902:1 903:1 905:1 908:1 910:1 911:1 912:1 913:1 916:1 918:1 919:1 926:1 929:1 930:1 931:1 933:1 934:1 937:1 938:1 940:1 942:1 946:1 949:1 950:1 951:1 965:1 970:1 973:1 976:1 978:1 986:1 988:1 989:1 991:1 992:1 993:1 994:1 996:1 998:1 1000:1 1001:1 1002:1 1003:1 1004:1 1007:1 1008:1 1009:1 1011:1 1020:1 1021:1 1023:1 1030:1 1038:1 1039:1 1040:1 1041:1 1044:1 1049:1 1056:1 1061:1 1062:1 1074:1 1075:1 1079:1 1080:1 1082:1 1083:1 1090:1 1091:1 1094:1 1095:1 1096:1 1097:1 1101:1 1108:1 1109:1 1111:1 1112:1 1113:1 1114:1 1117:1 1120:1 1121:1 1126:1 1129:1 1130:1 1135:1 1137:1 1138:1 1139:1 1146:1 1147:1 1148:1 1149:1 1150:1 1152:1 1155:1 1156:1 1157:1 1160:1 1166:1 1167:1 1168:1 1172:1 1176:1 1177:1 1178:1 1180:1 1190:1 1191:1 1192:1 1194:1 1195:1 1196:1 1198:1 1199:1 1200:1 1203:1 1204:1 1210:1 1219:1 1220:1 1221:1 1222:1 1223:1 1224:1 1225:1 1248:1 1249:1 1253:1 1254:1 1258:1 1261:1 1262:1 1263:1 1268:1 1276:1 1277:1 1280:1 1284:1 1290:1 1291:1 1292:1 1293:1 1294:1 1295:1 1297:1 1300:1 1301:1 1305:1 1306:1 1310:1 1311:1 1319:1 1320:1 1321:1 1325:1 1327:1 1330:1 1332:1 1335:1 1336:1 1338:1 1339:1 1340:1 1341:1 1342:1 1345:1 1349:1 1350:1 1351:1 1353:1 1356:1 1357:1 1360:1 1361:1 1362:1 1363:1 1364:1 1367:1 1369:1 1374:1 1375:1 1376:1 1377:1 1379:1 1383:1 1384:1 1386:1 1394:1 1409:1 1414:1 1427:1 1428:1 1429:1 1431:1 1432:1 1433:1 1436:1 1441:1 1442:1 1443:1 1446:1 1449:1 1452:1 1453:1 1455:1 1456:1 1459:1 1462:1 1468:1 1470:1 1471:1 1493:1 1496:1 1497:1 1498:1 1499:1 1500:1 1501:1 
1.151171547857284 -0.1208202616916081 -0.06089446470700677 0 -0.6240473231892159 0 -0.04686844181005378 -0.001529801085396576 -0.2638073510203545 -0.03320390435364862 0 1:1 4:1 5:1 8:1 10:1 11:1 16:1 18:1 19:1 20:1 21:1 22:1 25:1 27:1 29:1 30:1 31:1 35:1 36:1 38:1 40:1 41:1 42:1 49:1 50:1 51:1 53:1 54:1 58:1 60:1 61:1 63:1 65:1 67:1 70:1 72:1 76:1 78:1 79:1 81:1 85:1 89:1 91:1 93:1 101:1 103:1 105:1 106:1 107:1 111:1 112:1 114:1 117:1 119:1 120:1 123:1 125:1 126:1 127:1 128:1 129:1 131:1 132:1 133:1 134:1 137:1 138:1 139:1 140:1 142:1 143:1 147:1 148:1 150:1 151:1 152:1 155:1 158:1 166:1 167:1 168:1 169:1 170:1 171:1 172:1 173:1 177:1 180:1 182:1 185:1 189:1 190:1 191:1 192:1 193:1 195:1 196:1 198:1 199:1 202:1 203:1 205:1 206:1 209:1 210:1 212:1 213:1 214:1 216:1 220:1 221:1 223:1 227:1 230:1 232:1 235:1 236:1 240:1 241:1 242:1 243:1 244:1 246:1 249:1 250:1 252:1 254:1 255:1 256:1 259:1 263:1 266:1 267:1 268:1 271:1 274:1 275:1 276:1 277:1 279:1 280:1 283:1 284:1 287:1 288:1 290:1 292:1 293:1 294:1 296:1 298:1 299:1 301:1 303:1 309:1 310:1 311:1 316:1 318:1 319:1 320:1 321:1 322:1 324:1 326:1 330:1 331:1 332:1 334:1 335:1 336:1 338:1 340:1 341:1 365:1 370:1 373:1 374:1 376:1 378:1 383:1 384:1 385:1 389:1 390:1 391:1 396:1 397:1 406:1 417:1 434:1 440:1 444:1 453:1 459:1 460:1 471:1 477:1 481:1 483:1 489:1 492:1 494:1 499:1 500:1 503:1 511:1 519:1 520:1 521:1 522:1 523:1 524:1 538:1 539:1 547:1 561:1 562:1 567:1 568:1 578:1 590:1 593:1 596:1 597:1 598:1 599:1 600:1 606:1 607:1 608:1 611:1 612:1 613:1 620:1 621:1 622:1 624:1 636:1 641:1 643:1 662:1 663:1 664:1 668:1 673:1 682:1 686:1 691:1 704:1 710:1 716:1 718:1 721:1 727:1 728:1 733:1 734:1 735:1 742:1 747:1 757:1 761:1 765:1 768:1 769:1 770:1 773:1 776:1 779:1 783:1 784:1 787:1 788:1 797:1 808:1 823:1 824:1 829:1 830:1 835:1 847:1 854:1 859:1 863:1 866:1 868:1 874:1 881:1 882:1 883:1 889:1 902:1 903:1 905:1 908:1 909:1 910:1 911:1 912:1 913:1 918:1 926:1 928:1 929:1 933:1 937:1 938:1 940:1 942:1 949:1 950:1 962:1 963:1 970:1 973:1 978:1 986:1 988:1 991:1 992:1 993:1 996:1 998:1 1000:1 1001:1 1002:1 1004:1 1007:1 1008:1 1009:1 1010:1 1017:1 1020:1 1021:1 1023:1 1036:1 1037:1 1038:1 1053:1 1054:1 1056:1 1069:1 1070:1 1071:1 1072:1 1074:1 1075:1 1079:1 1080:1 1083:1 1090:1 1091:1 1096:1 1097:1 1108:1 1109:1 1117:1 1120:1 1121:1 1124:1 1137:1 1138:1 1152:1 1154:1 1160:1 1161:1 1176:1 1185:1 1190:1 1192:1 1196:1 1199:1 1206:1 1222:1 1223:1 1225:1 1248:1 1253:1 1258:1 1262:1 1263:1 1267:1 1268:1 1277:1 1280:1 1282:1 1284:1 1290:1 1292:1 1296:1 1297:1 1306:1 1310:1 1311:1 1321:1 1327:1 1331:1 1332:1 1340:1 1353:1 1360:1 1361:1 1362:1 1363:1 1364:1 1383:1 1386:1 1394:1 1409:1 1427:1 1428:1 1429:1 1433:1 1436:1 1449:1 1453:1 1456:1 1459:1 1462:1 1471:1 1493:1 1497:1 1498:1 1500:1 1501:1 
1.095485684672903 -0.005145823445872185 -0.007346210812955574 -0.002982144881569745 -0.1095799390686688 -0.112402521174611 -0.1187173497595049 0 -0.2861870479306637 -0.4531246475990572 0 1:1 4:1 5:1 7:1 8:1 10:1 11:1 16:1 17:1 18:1 19:1 20:1 21:1 24:1 25:1 27:1 28:1 29:1 30:1 31:1 35:1 36:1 37:1 38:1 40:1 41:1 42:1 49:1 50:1 53:1 54:1 58:1 60:1 61:1 63:1 65:1 67:1 70:1 72:1 76:1 77:1 81:1 85:1 89:1 91:1 93:1 103:1 106:1 107:1 112:1 114:1 116:1 117:1 119:1 120:1 123:1 125:1 126:1 127:1 128:1 129:1 131:1 132:1 133:1 134:1 137:1 138:1 139:1 140:1 142:1 143:1 147:1 148:1 150:1 151:1 152:1 155:1 158:1 162:1 164:1 166:1 167:1 168:1 169:1 170:1 171:1 172:1 173:1 177:1 180:1 182:1 185:1 189:1 190:1 191:1 192:1 193:1 195:1 196:1 198:1 199:1 202:1 203:1 205:1 206:1 209:1 210:1 213:1 214:1 216:1 220:1 221:1 223:1 230:1 232:1 235:1 236:1 240:1 241:1 242:1 243:1 246:1 249:1 250:1 252:1 254:1 255:1 256:1 259:1 263:1 266:1 267:1 268:1 272:1 274:1 275:1 276:1 277:1 279:1 280:1 283:1 284:1 287:1 290:1 292:1 293:1 294:1 295:1 296:1 297:1 299:1 301:1 303:1 309:1 310:1 311:1 312:1 318:1 319:1 320:1 321:1 322:1 324:1 326:1 328:1 330:1 331:1 332:1 334:1 335:1 336:1 338:1 340:1 341:1 351:1 365:1 373:1 374:1 376:1 379:1 383:1 384:1 385:1 387:1 389:1 390:1 393:1 395:1 396:1 397:1 406:1 417:1 430:1 432:1 433:1 434:1 436:1 450:1 455:1 459:1 460:1 461:1 466:1 468:1 469:1 471:1 477:1 480:1 481:1 483:1 489:1 490:1 492:1 496:1 497:1 499:1 500:1 503:1 511:1 512:1 515:1 523:1 524:1 529:1 536:1 538:1 539:1 549:1 553:1 567:1 568:1 569:1 577:1 578:1 581:1 582:1 583:1 592:1 593:1 596:1 597:1 598:1 600:1 611:1 612:1 613:1 620:1 621:1 622:1 627:1 629:1 638:1 641:1 643:1 647:1 648:1 649:1 655:1 660:1 662:1 663:1 664:1 668:1 673:1 675:1 682:1 686:1 691:1 700:1 704:1 705:1 707:1 710:1 716:1 721:1 726:1 727:1 731:1 734:1 735:1 742:1 747:1 757:1 760:1 762:1 766:1 767:1 769:1 770:1 771:1 773:1 774:1 776:1 779:1 781:1 783:1 784:1 787:1 788:1 790:1 797:1 808:1 811:1 814:1 817:1 829:1 830:1 844:1 845:1 847:1 854:1 859:1 861:1 863:1 864:1 868:1 871:1 874:1 877:1 878:1 882:1 883:1 889:1 901:1 902:1 903:1 905:1 907:1 908:1 910:1 911:1 913:1 917:1 926:1 929:1 933:1 938:1 939:1 942:1 949:1 950:1 965:1 973:1 978:1 986:1 991:1 992:1 993:1 996:1 998:1 1000:1 1001:1 1002:1 1003:1 1004:1 1005:1 1006:1 1007:1 1008:1 1009:1 1011:1 1017:1 1020:1 1021:1 1023:1 1024:1 1031:1 1034:1 1038:1 1039:1 1040:1 1049:1 1053:1 1055:1 1056:1 1070:1 1071:1 1074:1 1075:1 1079:1 1080:1 1082:1 1083:1 1086:1 1087:1 1090:1 1091:1 1096:1 1097:1 1103:1 1108:1 1109:1 1112:1 1113:1 1120:1 1121:1 1126:1 1129:1 1137:1 1138:1 1139:1 1143:1 1145:1 1146:1 1152:1 1158:1 1159:1 1160:1 1161:1 1162:1 1172:1 1176:1 1178:1 1181:1 1190:1 1191:1 1192:1 1195:1 1196:1 1198:1 1199:1 1200:1 1203:1 1204:1 1207:1 1215:1 1223:1 1226:1 1248:1 1249:1 1253:1 1254:1 1256:1 1258:1 1261:1 1262:1 1266:1 1268:1 1269:1 1273:1 1276:1 1277:1 1280:1 1284:1 1292:1 1294:1 1296:1 1297:1 1306:1 1310:1 1319:1 1320:1 1321:1 1322:1 1325:1 1327:1 1330:1 1331:1 1332:1 1335:1 1336:1 1338:1 1340:1 1345:1 1349:1 1350:1 1353:1 1360:1 1361:1 1362:1 1363:1 1364:1 1368:1 1374:1 1375:1 1377:1 1378:1 1383:1 1384:1 1394:1 1403:1 1409:1 1427:1 1428:1 1429:1 1433:1 1436:1 1445:1 1446:1 1449:1 1450:1 1451:1 1452:1 1453:1 1455:1 1459:1 1469:1 1471:1 1473:1 1481:1 1485:1 1489:1 1490:1 1492:1 1493:1 1496:1 1497:1 1498:1 1499:1 1500:1 1501:1 
1.122640120495917 -0.6463897324540797 0 0 -0.07856840670119825 -0.2093469370283967 -0.070757618987354 0 0 -0.1175774253248891 0 1:1 3:1 4:1 5:1 8:1 10:1 11:1 16:1 17:1 19:1 20:1 21:1 23:1 24:1 25:1 27:1 29:1 30:1 31:1 35:1 36:1 38:1 40:1 41:1 42:1 49:1 50:1 53:1 54:1 58:1 60:1 61:1 63:1 65:1 67:1 70:1 72:1 76:1 81:1 85:1 89:1 91:1 93:1 99:1 103:1 105:1 106:1 107:1 112:1 114:1 117:1 119:1 120:1 123:1 124:1 125:1 126:1 127:1 128:1 129:1 131:1 132:1 133:1 134:1 137:1 138:1 139:1 140:1 142:1 143:1 145:1 147:1 150:1 151:1 152:1 155:1 158:1 161:1 166:1 167:1 168:1 169:1 170:1 171:1 172:1 173:1 177:1 180:1 182:1 185:1 189:1 190:1 191:1 192:1 193:1 195:1 196:1 198:1 199:1 202:1 203:1 205:1 206:1 207:1 208:1 209:1 210:1 213:1 214:1 216:1 220:1 221:1 223:1 227:1 229:1 230:1 232:1 235:1 236:1 240:1 241:1 242:1 243:1 246:1 249:1 250:1 252:1 254:1 255:1 256:1 259:1 263:1 266:1 267:1 268:1 270:1 271:1 274:1 275:1 276:1 277:1 279:1 280:1 283:1 284:1 287:1 290:1 292:1 293:1 294:1 298:1 299:1 301:1 303:1 309:1 310:1 311:1 316:1 318:1 319:1 320:1 321:1 322:1 324:1 326:1 330:1 331:1 332:1 334:1 335:1 336:1 338:1 340:1 341:1 351:1 365:1 373:1 374:1 376:1 383:1 385:1 396:1 406:1 415:1 432:1 436:1 440:1 459:1 465:1 471:1 477:1 481:1 489:1 491:1 497:1 503:1 512:1 513:1 517:1 524:1 547:1 568:1 578:1 583:1 592:1 593:1 596:1 597:1 598:1 600:1 607:1 608:1 611:1 612:1 613:1 620:1 621:1 622:1 624:1 638:1 641:1 643:1 649:1 650:1 662:1 663:1 664:1 668:1 681:1 682:1 683:1 686:1 691:1 694:1 700:1 704:1 705:1 707:1 710:1 718:1 726:1 728:1 731:1 734:1 742:1 747:1 757:1 763:1 769:1 770:1 773:1 776:1 779:1 783:1 784:1 787:1 788:1 797:1 808:1 811:1 817:1 829:1 830:1 841:1 846:1 847:1 857:1 859:1 861:1 863:1 866:1 868:1 871:1 874:1 882:1 883:1 889:1 898:1 900:1 902:1 903:1 905:1 908:1 910:1 911:1 912:1 926:1 929:1 931:1 934:1 938:1 940:1 942:1 949:1 963:1 970:1 973:1 975:1 976:1 978:1 986:1 988:1 991:1 992:1 993:1 996:1 998:1 1000:1 1001:1 1002:1 1004:1 1007:1 1008:1 1009:1 1011:1 1021:1 1023:1 1028:1 1038:1 1039:1 1048:1 1049:1 1053:1 1056:1 1059:1 1074:1 1075:1 1079:1 1080:1 1094:1 1096:1 1097:1 1100:1 1109:1 1120:1 1121:1 1129:1 1135:1 1137:1 1139:1 1146:1 1150:1 1152:1 1155:1 1160:1 1172:1 1173:1 1176:1 1177:1 1186:1 1190:1 1191:1 1195:1 1196:1 1199:1 1203:1 1215:1 1219:1 1220:1 1222:1 1223:1 1238:1 1248:1 1253:1 1254:1 1258:1 1267:1 1277:1 1280:1 1287:1 1292:1 1294:1 1295:1 1297:1 1301:1 1305:1 1306:1 1310:1 1319:1 1320:1 1321:1 1325:1 1332:1 1335:1 1340:1 1349:1 1350:1 1351:1 1353:1 1360:1 1361:1 1362:1 1363:1 1364:1 1366:1 1375:1 1378:1 1379:1 1383:1 1384:1 1388:1 1394:1 1409:1 1414:1 1427:1 1428:1 1429:1 1433:1 1436:1 1441:1 1442:1 1446:1 1448:1 1449:1 1452:1 1453:1 1456:1 1459:1 1460:1 1462:1 1463:1 1471:1 1493:1 1496:1 1498:1 1499:1 1500:1 1501:1 
0.812106670294924 -0.7928979553676188 0 0 0 0 0 0 -0.01920871492730525 0 0 1:1 4:1 5:1 8:1 10:1 11:1 16:1 19:1 20:1 21:1 22:1 25:1 27:1 29:1 30:1 31:1 35:1 36:1 38:1 40:1 41:1 42:1 49:1 50:1 53:1 54:1 56:1 58:1 60:1 61:1 63:1 65:1 67:1 70:1 72:1 76:1 81:1 85:1 87:1 89:1 91:1 93:1 94:1 98:1 99:1 103:1 105:1 106:1 107:1 112:1 114:1 117:1 119:1 120:1 123:1 124:1 125:1 126:1 127:1 128:1 129:1 131:1 132:1 133:1 134:1 137:1 138:1 139:1 140:1 142:1 143:1 147:1 148:1 150:1 151:1 152:1 155:1 158:1 166:1 167:1 168:1 169:1 170:1 171:1 172:1 173:1 177:1 180:1 182:1 185:1 189:1 190:1 191:1 192:1 193:1 195:1 196:1 198:1 199:1 202:1 203:1 204:1 205:1 206:1 208:1 209:1 210:1 213:1 214:1 216:1 220:1 221:1 223:1 227:1 228:1 229:1 230:1 232:1 235:1 236:1 240:1 241:1 242:1 243:1 246:1 249:1 250:1 252:1 253:1 254:1 255:1 256:1 259:1 261:1 263:1 266:1 267:1 268:1 270:1 271:1 272:1 274:1 275:1 276:1 277:1 279:1 280:1 283:1 284:1 287:1 290:1 291:1 292:1 293:1 294:1 299:1 301:1 303:1 309:1 310:1 311:1 318:1 319:1 320:1 321:1 322:1 324:1 326:1 330:1 331:1 332:1 334:1 335:1 336:1 338:1 340:1 341:1 365:1 370:1 373:1 374:1 376:1 378:1 382:1 383:1 384:1 387:1 389:1 390:1 391:1 392:1 396:1 406:1 415:1 417:1 430:1 432:1 433:1 434:1 436:1 450:1 459:1 460:1 461:1 471:1 477:1 481:1 483:1 489:1 491:1 492:1 499:1 503:1 504:1 507:1 511:1 512:1 513:1 517:1 518:1 523:1 524:1 527:1 529:1 535:1 536:1 568:1 571:1 578:1 593:1 596:1 597:1 598:1 599:1 600:1 608:1 611:1 612:1 613:1 614:1 620:1 621:1 622:1 625:1 626:1 629:1 641:1 643:1 648:1 659:1 662:1 664:1 668:1 676:1 681:1 682:1 684:1 685:1 686:1 691:1 700:1 704:1 705:1 706:1 710:1 721:1 724:1 726:1 728:1 731:1 733:1 734:1 735:1 737:1 742:1 747:1 760:1 761:1 765:1 766:1 767:1 768:1 769:1 770:1 771:1 773:1 776:1 779:1 783:1 784:1 785:1 787:1 788:1 797:1 808:1 809:1 814:1 817:1 829:1 830:1 837:1 847:1 859:1 863:1 864:1 868:1 870:1 871:1 874:1 877:1 880:1 882:1 883:1 889:1 901:1 902:1 903:1 905:1 908:1 910:1 911:1 912:1 918:1 926:1 929:1 931:1 936:1 937:1 938:1 942:1 950:1 962:1 970:1 973:1 974:1 978:1 986:1 988:1 989:1 991:1 992:1 993:1 996:1 998:1 1000:1 1001:1 1002:1 1004:1 1007:1 1008:1 1009:1 1010:1 1020:1 1021:1 1023:1 1028:1 1034:1 1035:1 1038:1 1039:1 1040:1 1044:1 1049:1 1052:1 1056:1 1061:1 1066:1 1070:1 1071:1 1072:1 1074:1 1075:1 1079:1 1082:1 1090:1 1091:1 1094:1 1096:1 1097:1 1100:1 1101:1 1103:1 1104:1 1111:1 1113:1 1117:1 1120:1 1121:1 1129:1 1130:1 1137:1 1138:1 1146:1 1150:1 1152:1 1159:1 1160:1 1171:1 1172:1 1173:1 1176:1 1177:1 1178:1 1180:1 1190:1 1192:1 1196:1 1199:1 1200:1 1203:1 1206:1 1207:1 1215:1 1219:1 1220:1 1222:1 1223:1 1248:1 1249:1 1253:1 1258:1 1261:1 1262:1 1267:1 1276:1 1277:1 1287:1 1290:1 1291:1 1292:1 1294:1 1295:1 1296:1 1297:1 1300:1 1301:1 1306:1 1310:1 1319:1 1321:1 1327:1 1331:1 1332:1 1335:1 1338:1 1340:1 1342:1 1349:1 1350:1 1351:1 1353:1 1357:1 1360:1 1361:1 1362:1 1363:1 1364:1 1367:1 1374:1 1377:1 1383:1 1384:1 1394:1 1409:1 1419:1 1427:1 1428:1 1429:1 1433:1 1436:1 1442:1 1446:1 1449:1 1453:1 1455:1 1459:1 1462:1 1463:1 1471:1 1493:1 1497:1 1498:1 1500:1 1501:1 
1.359134986528602 -1.359134986528602 0 0 0 0 0 0 0 0 0 1:1 3:1 4:1 5:1 6:1 8:1 9:1 10:1 11:1 16:1 17:1 19:1 21:1 22:1 23:1 24:1 25:1 26:1 27:1 28:1 29:1 30:1 31:1 35:1 36:1 38:1 40:1 41:1 42:1 49:1 50:1 53:1 54:1 58:1 60:1 61:1 63:1 65:1 67:1 70:1 72:1 75:1 76:1 81:1 85:1 89:1 91:1 93:1 94:1 98:1 103:1 105:1 106:1 107:1 112:1 114:1 117:1 119:1 120:1 123:1 125:1 126:1 127:1 128:1 129:1 130:1 131:1 132:1 133:1 134:1 137:1 138:1 139:1 140:1 142:1 143:1 147:1 148:1 150:1 151:1 152:1 155:1 158:1 166:1 167:1 168:1 169:1 170:1 171:1 172:1 173:1 177:1 180:1 182:1 185:1 189:1 190:1 191:1 192:1 193:1 195:1 196:1 198:1 199:1 202:1 203:1 205:1 206:1 207:1 209:1 210:1 213:1 214:1 216:1 220:1 221:1 223:1 227:1 230:1 232:1 235:1 236:1 240:1 241:1 242:1 243:1 246:1 249:1 250:1 252:1 253:1 254:1 255:1 256:1 257:1 259:1 263:1 266:1 267:1 268:1 274:1 275:1 276:1 277:1 279:1 280:1 283:1 284:1 287:1 290:1 291:1 292:1 293:1 294:1 299:1 301:1 303:1 305:1 309:1 310:1 311:1 318:1 319:1 320:1 321:1 322:1 324:1 326:1 330:1 331:1 332:1 334:1 335:1 336:1 338:1 340:1 341:1 362:1 365:1 370:1 373:1 374:1 376:1 383:1 384:1 385:1 387:1 389:1 390:1 391:1 396:1 399:1 406:1 417:1 422:1 430:1 432:1 433:1 434:1 444:1 459:1 460:1 461:1 471:1 474:1 477:1 481:1 483:1 484:1 489:1 496:1 499:1 503:1 518:1 524:1 529:1 531:1 535:1 549:1 568:1 577:1 578:1 593:1 596:1 597:1 598:1 606:1 608:1 611:1 612:1 613:1 614:1 616:1 620:1 621:1 622:1 623:1 625:1 626:1 627:1 641:1 643:1 647:1 662:1 664:1 668:1 676:1 682:1 684:1 685:1 686:1 691:1 700:1 704:1 705:1 710:1 721:1 726:1 728:1 734:1 735:1 742:1 747:1 761:1 767:1 768:1 769:1 770:1 771:1 773:1 774:1 776:1 779:1 783:1 784:1 785:1 787:1 788:1 797:1 808:1 809:1 810:1 813:1 815:1 816:1 829:1 830:1 831:1 847:1 859:1 861:1 863:1 864:1 866:1 868:1 871:1 882:1 883:1 889:1 901:1 902:1 903:1 905:1 908:1 910:1 911:1 912:1 916:1 918:1 926:1 929:1 930:1 931:1 933:1 934:1 935:1 936:1 938:1 940:1 942:1 946:1 949:1 950:1 965:1 970:1 978:1 986:1 988:1 991:1 992:1 993:1 996:1 998:1 1001:1 1002:1 1004:1 1007:1 1008:1 1009:1 1010:1 1021:1 1023:1 1038:1 1056:1 1061:1 1062:1 1066:1 1074:1 1075:1 1079:1 1080:1 1082:1 1083:1 1087:1 1090:1 1096:1 1097:1 1108:1 1111:1 1112:1 1120:1 1121:1 1126:1 1127:1 1130:1 1135:1 1136:1 1137:1 1138:1 1146:1 1149:1 1152:1 1160:1 1162:1 1167:1 1172:1 1173:1 1176:1 1180:1 1186:1 1190:1 1192:1 1195:1 1196:1 1198:1 1199:1 1203:1 1204:1 1210:1 1219:1 1223:1 1225:1 1248:1 1249:1 1253:1 1258:1 1260:1 1261:1 1262:1 1263:1 1267:1 1276:1 1277:1 1290:1 1291:1 1292:1 1295:1 1296:1 1297:1 1306:1 1307:1 1310:1 1314:1 1321:1 1327:1 1332:1 1338:1 1340:1 1345:1 1348:1 1350:1 1351:1 1353:1 1360:1 1361:1 1362:1 1363:1 1364:1 1369:1 1377:1 1383:1 1388:1 1394:1 1409:1 1414:1 1427:1 1428:1 1429:1 1433:1 1436:1 1441:1 1442:1 1443:1 1449:1 1450:1 1453:1 1459:1 1462:1 1471:1 1493:1 1496:1 1498:1 1499:1 1500:1 1501:1 
1.094383837409342 -0.4856940895613506 0 0 0 0 0 0 -0.6069742405136054 0 -0.001715507334385302 1:1 4:1 5:1 8:1 10:1 11:1 16:1 19:1 20:1 22:1 23:1 24:1 25:1 27:1 29:1 30:1 31:1 35:1 36:1 38:1 40:1 41:1 42:1 49:1 50:1 51:1 53:1 54:1 58:1 60:1 61:1 63:1 65:1 67:1 70:1 72:1 75:1 76:1 81:1 85:1 89:1 91:1 93:1 94:1 103:1 105:1 106:1 107:1 112:1 114:1 117:1 119:1 120:1 123:1 125:1 126:1 127:1 128:1 129:1 131:1 132:1 133:1 134:1 137:1 138:1 139:1 140:1 142:1 143:1 147:1 150:1 151:1 152:1 155:1 158:1 166:1 167:1 168:1 169:1 170:1 171:1 172:1 173:1 177:1 180:1 182:1 185:1 189:1 190:1 191:1 192:1 193:1 195:1 196:1 198:1 199:1 202:1 203:1 205:1 206:1 208:1 209:1 210:1 212:1 213:1 214:1 216:1 220:1 221:1 223:1 227:1 228:1 229:1 230:1 232:1 235:1 236:1 240:1 241:1 242:1 243:1 246:1 249:1 250:1 252:1 254:1 255:1 256:1 259:1 263:1 266:1 267:1 268:1 274:1 275:1 276:1 277:1 279:1 280:1 283:1 284:1 287:1 290:1 292:1 293:1 294:1 299:1 301:1 303:1 309:1 310:1 311:1 317:1 318:1 319:1 320:1 321:1 322:1 324:1 326:1 330:1 331:1 332:1 334:1 335:1 336:1 338:1 340:1 341:1 359:1 365:1 370:1 373:1 374:1 376:1 378:1 383:1 385:1 387:1 396:1 415:1 432:1 440:1 463:1 464:1 471:1 477:1 481:1 489:1 497:1 499:1 500:1 503:1 506:1 513:1 524:1 527:1 593:1 596:1 597:1 599:1 611:1 612:1 613:1 620:1 621:1 622:1 626:1 643:1 662:1 664:1 668:1 682:1 683:1 685:1 686:1 691:1 700:1 704:1 705:1 707:1 710:1 724:1 727:1 733:1 734:1 735:1 742:1 747:1 763:1 769:1 770:1 773:1 774:1 776:1 779:1 783:1 784:1 785:1 787:1 788:1 797:1 808:1 829:1 830:1 844:1 846:1 857:1 859:1 861:1 863:1 868:1 870:1 874:1 877:1 882:1 883:1 889:1 902:1 903:1 905:1 908:1 910:1 911:1 926:1 927:1 928:1 929:1 931:1 934:1 940:1 942:1 948:1 949:1 965:1 978:1 986:1 988:1 992:1 993:1 996:1 998:1 1002:1 1004:1 1007:1 1008:1 1009:1 1021:1 1023:1 1028:1 1034:1 1037:1 1056:1 1069:1 1070:1 1073:1 1074:1 1075:1 1079:1 1083:1 1085:1 1087:1 1090:1 1091:1 1097:1 1100:1 1104:1 1120:1 1121:1 1129:1 1135:1 1137:1 1138:1 1143:1 1146:1 1152:1 1157:1 1160:1 1166:1 1173:1 1178:1 1180:1 1190:1 1191:1 1192:1 1195:1 1196:1 1203:1 1207:1 1212:1 1219:1 1220:1 1222:1 1223:1 1248:1 1253:1 1258:1 1262:1 1268:1 1277:1 1282:1 1284:1 1287:1 1290:1 1292:1 1294:1 1295:1 1296:1 1297:1 1306:1 1310:1 1321:1 1325:1 1327:1 1332:1 1333:1 1338:1 1340:1 1342:1 1345:1 1349:1 1351:1 1353:1 1360:1 1361:1 1362:1 1363:1 1364:1 1377:1 1379:1 1383:1 1386:1 1389:1 1394:1 1409:1 1427:1 1428:1 1429:1 1433:1 1436:1 1446:1 1449:1 1453:1 1459:1 1471:1 1493:1 1496:1 1498:1 1500:1 1501:1 
1.488203592578083 -1.466237404747385 0 0 0 0 0 0 0 0 -0.02196618783069811 1:1 4:1 5:1 8:1 10:1 11:1 16:1 17:1 19:1 21:1 22:1 24:1 25:1 27:1 28:1 29:1 30:1 31:1 35:1 36:1 38:1 40:1 41:1 42:1 49:1 50:1 53:1 54:1 58:1 60:1 61:1 63:1 65:1 67:1 70:1 72:1 73:1 75:1 76:1 81:1 85:1 89:1 91:1 93:1 103:1 105:1 106:1 107:1 112:1 114:1 117:1 119:1 120:1 123:1 125:1 126:1 127:1 128:1 129:1 131:1 132:1 133:1 134:1 137:1 138:1 139:1 140:1 142:1 143:1 147:1 150:1 151:1 152:1 155:1 158:1 166:1 167:1 168:1 169:1 170:1 171:1 172:1 173:1 177:1 180:1 182:1 185:1 189:1 190:1 191:1 192:1 193:1 195:1 196:1 198:1 199:1 202:1 203:1 205:1 206:1 209:1 210:1 212:1 213:1 214:1 216:1 220:1 221:1 223:1 227:1 230:1 232:1 235:1 236:1 240:1 241:1 242:1 243:1 246:1 249:1 250:1 252:1 253:1 254:1 255:1 256:1 259:1 263:1 266:1 267:1 268:1 274:1 275:1 276:1 277:1 279:1 280:1 283:1 284:1 287:1 290:1 292:1 293:1 294:1 299:1 301:1 303:1 309:1 310:1 311:1 317:1 318:1 319:1 320:1 321:1 322:1 324:1 326:1 330:1 331:1 332:1 334:1 335:1 336:1 338:1 340:1 341:1 365:1 373:1 374:1 376:1 382:1 387:1 389:1 390:1 391:1 392:1 396:1 417:1 432:1 434:1 440:1 447:1 463:1 471:1 477:1 489:1 513:1 519:1 520:1 524:1 553:1 554:1 555:1 560:1 567:1 568:1 593:1 596:1 597:1 598:1 608:1 611:1 612:1 613:1 614:1 620:1 621:1 622:1 626:1 627:1 629:1 630:1 641:1 643:1 649:1 660:1 662:1 664:1 668:1 681:1 682:1 686:1 691:1 700:1 702:1 704:1 710:1 721:1 724:1 728:1 731:1 733:1 734:1 742:1 747:1 753:1 760:1 761:1 769:1 770:1 773:1 776:1 783:1 784:1 787:1 788:1 797:1 808:1 829:1 830:1 837:1 859:1 861:1 863:1 866:1 868:1 870:1 882:1 883:1 889:1 902:1 903:1 905:1 908:1 910:1 911:1 916:1 926:1 928:1 929:1 931:1 938:1 942:1 948:1 949:1 978:1 986:1 988:1 989:1 992:1 993:1 994:1 996:1 998:1 1000:1 1002:1 1003:1 1004:1 1007:1 1008:1 1009:1 1011:1 1021:1 1023:1 1040:1 1044:1 1056:1 1061:1 1066:1 1074:1 1075:1 1079:1 1094:1 1095:1 1096:1 1100:1 1101:1 1120:1 1121:1 1135:1 1136:1 1137:1 1138:1 1143:1 1149:1 1152:1 1157:1 1160:1 1166:1 1172:1 1177:1 1178:1 1180:1 1190:1 1191:1 1194:1 1196:1 1203:1 1220:1 1222:1 1223:1 1224:1 1248:1 1249:1 1253:1 1258:1 1270:1 1277:1 1290:1 1292:1 1293:1 1295:1 1297:1 1300:1 1305:1 1306:1 1310:1 1321:1 1327:1 1337:1 1339:1 1340:1 1342:1 1345:1 1353:1 1360:1 1361:1 1362:1 1363:1 1364:1 1366:1 1367:1 1374:1 1376:1 1383:1 1389:1 1394:1 1409:1 1427:1 1428:1 1429:1 1431:1 1433:1 1436:1 1449:1 1453:1 1455:1 1459:1 1463:1 1471:1 1493:1 1496:1 1500:1 1501:1 
1.144017508865535 -0.9596066951638605 -0.06410078340424299 0 0 0 0 0 -0.1034176054788335 -0.016892424818598 0 1:1 3:1 4:1 5:1 8:1 10:1 11:1 16:1 18:1 19:1 20:1 21:1 23:1 24:1 25:1 27:1 29:1 30:1 31:1 35:1 36:1 38:1 40:1 41:1 42:1 49:1 50:1 53:1 54:1 58:1 60:1 61:1 63:1 65:1 67:1 70:1 72:1 76:1 81:1 85:1 86:1 89:1 91:1 93:1 94:1 103:1 105:1 106:1 107:1 112:1 114:1 117:1 119:1 120:1 123:1 124:1 125:1 126:1 127:1 128:1 129:1 131:1 132:1 133:1 134:1 137:1 138:1 139:1 140:1 142:1 143:1 147:1 150:1 151:1 152:1 155:1 158:1 161:1 166:1 167:1 168:1 169:1 170:1 171:1 172:1 173:1 177:1 180:1 182:1 185:1 189:1 190:1 191:1 192:1 193:1 195:1 196:1 198:1 199:1 202:1 203:1 205:1 206:1 209:1 210:1 213:1 214:1 216:1 220:1 221:1 223:1 230:1 232:1 235:1 236:1 240:1 241:1 242:1 243:1 246:1 249:1 250:1 252:1 253:1 254:1 255:1 256:1 259:1 263:1 266:1 267:1 268:1 274:1 275:1 276:1 277:1 279:1 280:1 283:1 284:1 287:1 288:1 290:1 292:1 293:1 294:1 299:1 301:1 303:1 309:1 310:1 311:1 318:1 319:1 320:1 321:1 322:1 324:1 326:1 330:1 331:1 332:1 334:1 335:1 336:1 338:1 340:1 341:1 354:1 365:1 373:1 374:1 376:1 383:1 384:1 385:1 387:1 388:1 390:1 391:1 392:1 396:1 406:1 413:1 415:1 417:1 430:1 432:1 433:1 434:1 436:1 444:1 445:1 450:1 471:1 477:1 481:1 489:1 490:1 492:1 499:1 503:1 504:1 513:1 518:1 520:1 523:1 524:1 535:1 538:1 547:1 567:1 568:1 575:1 577:1 578:1 592:1 593:1 596:1 597:1 598:1 611:1 612:1 613:1 620:1 621:1 622:1 629:1 638:1 640:1 641:1 643:1 648:1 654:1 662:1 663:1 664:1 665:1 666:1 668:1 682:1 686:1 691:1 698:1 704:1 707:1 708:1 710:1 721:1 727:1 731:1 734:1 735:1 742:1 747:1 753:1 754:1 757:1 760:1 761:1 765:1 766:1 767:1 769:1 770:1 771:1 773:1 774:1 776:1 781:1 783:1 784:1 787:1 788:1 797:1 808:1 816:1 817:1 829:1 830:1 831:1 844:1 845:1 847:1 859:1 861:1 863:1 864:1 868:1 870:1 871:1 874:1 877:1 882:1 883:1 889:1 901:1 902:1 903:1 905:1 908:1 910:1 911:1 912:1 921:1 926:1 929:1 931:1 938:1 942:1 949:1 950:1 965:1 970:1 973:1 978:1 986:1 989:1 991:1 992:1 993:1 996:1 1000:1 1001:1 1002:1 1003:1 1004:1 1007:1 1008:1 1009:1 1010:1 1017:1 1021:1 1023:1 1028:1 1034:1 1038:1 1040:1 1049:1 1056:1 1061:1 1062:1 1066:1 1068:1 1069:1 1071:1 1074:1 1075:1 1079:1 1080:1 1082:1 1090:1 1091:1 1094:1 1095:1 1096:1 1097:1 1100:1 1101:1 1109:1 1111:1 1112:1 1113:1 1115:1 1117:1 1120:1 1121:1 1126:1 1127:1 1136:1 1137:1 1138:1 1139:1 1143:1 1146:1 1147:1 1148:1 1149:1 1150:1 1152:1 1153:1 1156:1 1160:1 1173:1 1178:1 1180:1 1186:1 1190:1 1191:1 1192:1 1196:1 1200:1 1203:1 1204:1 1210:1 1219:1 1223:1 1224:1 1225:1 1226:1 1248:1 1249:1 1253:1 1258:1 1261:1 1262:1 1267:1 1277:1 1284:1 1290:1 1291:1 1292:1 1294:1 1295:1 1297:1 1301:1 1302:1 1305:1 1306:1 1310:1 1319:1 1321:1 1327:1 1328:1 1329:1 1331:1 1332:1 1338:1 1340:1 1349:1 1350:1 1351:1 1353:1 1357:1 1360:1 1361:1 1362:1 1363:1 1364:1 1366:1 1369:1 1374:1 1375:1 1377:1 1383:1 1394:1 1409:1 1419:1 1427:1 1428:1 1429:1 1433:1 1436:1 1449:1 1451:1 1452:1 1453:1 1455:1 1456:1 1459:1 1462:1 1471:1 1493:1 1496:1 1500:1 1501:1 
1.133834697379642 -0.6651796346042719 0 0 -0.4686550627753703 0 0 0 0 0 0 1:1 3:1 4:1 5:1 7:1 8:1 10:1 11:1 16:1 17:1 18:1 19:1 20:1 21:1 23:1 25:1 27:1 28:1 29:1 30:1 31:1 35:1 36:1 38:1 40:1 41:1 42:1 49:1 50:1 51:1 53:1 54:1 58:1 60:1 61:1 63:1 65:1 67:1 70:1 72:1 76:1 78:1 79:1 81:1 85:1 86:1 87:1 89:1 91:1 92:1 93:1 94:1 96:1 101:1 103:1 105:1 106:1 107:1 112:1 113:1 114:1 117:1 119:1 120:1 123:1 125:1 126:1 127:1 128:1 129:1 131:1 132:1 133:1 134:1 137:1 138:1 139:1 140:1 142:1 143:1 145:1 146:1 147:1 150:1 151:1 152:1 155:1 158:1 160:1 166:1 167:1 168:1 169:1 170:1 171:1 172:1 173:1 177:1 180:1 182:1 185:1 189:1 190:1 191:1 192:1 193:1 195:1 196:1 198:1 199:1 202:1 203:1 205:1 206:1 208:1 209:1 210:1 213:1 214:1 216:1 220:1 221:1 223:1 227:1 228:1 229:1 230:1 232:1 235:1 236:1 240:1 241:1 242:1 243:1 246:1 249:1 250:1 252:1 254:1 255:1 256:1 259:1 263:1 266:1 267:1 268:1 270:1 271:1 274:1 275:1 276:1 277:1 279:1 280:1 283:1 284:1 287:1 290:1 292:1 293:1 294:1 298:1 299:1 301:1 303:1 305:1 309:1 310:1 311:1 318:1 319:1 320:1 321:1 322:1 324:1 326:1 330:1 331:1 332:1 334:1 335:1 336:1 338:1 340:1 341:1 365:1 368:1 370:1 373:1 374:1 376:1 378:1 382:1 383:1 384:1 385:1 388:1 390:1 391:1 392:1 396:1 404:1 405:1 413:1 417:1 427:1 430:1 432:1 433:1 434:1 436:1 444:1 450:1 459:1 460:1 461:1 471:1 477:1 481:1 483:1 489:1 490:1 494:1 501:1 503:1 511:1 512:1 515:1 519:1 520:1 521:1 522:1 523:1 524:1 527:1 534:1 535:1 545:1 547:1 561:1 568:1 575:1 577:1 578:1 592:1 593:1 596:1 597:1 598:1 600:1 603:1 606:1 611:1 612:1 613:1 616:1 620:1 621:1 622:1 626:1 641:1 643:1 648:1 649:1 654:1 662:1 663:1 664:1 666:1 668:1 673:1 681:1 682:1 686:1 691:1 698:1 704:1 705:1 707:1 710:1 716:1 718:1 726:1 728:1 731:1 734:1 735:1 742:1 747:1 753:1 756:1 757:1 760:1 765:1 766:1 767:1 768:1 769:1 770:1 771:1 773:1 774:1 776:1 779:1 783:1 784:1 785:1 787:1 788:1 797:1 808:1 816:1 817:1 829:1 830:1 844:1 847:1 857:1 859:1 861:1 863:1 864:1 868:1 870:1 871:1 877:1 882:1 883:1 889:1 901:1 902:1 903:1 905:1 908:1 910:1 911:1 912:1 916:1 926:1 929:1 933:1 934:1 938:1 940:1 942:1 949:1 950:1 962:1 963:1 965:1 970:1 974:1 978:1 986:1 988:1 989:1 991:1 992:1 993:1 994:1 996:1 998:1 1000:1 1001:1 1002:1 1003:1 1004:1 1007:1 1008:1 1009:1 1010:1 1021:1 1023:1 1028:1 1034:1 1037:1 1038:1 1039:1 1040:1 1044:1 1049:1 1056:1 1061:1 1062:1 1066:1 1070:1 1074:1 1075:1 1079:1 1082:1 1090:1 1094:1 1095:1 1096:1 1097:1 1100:1 1101:1 1109:1 1110:1 1111:1 1112:1 1117:1 1120:1 1121:1 1122:1 1123:1 1124:1 1129:1 1130:1 1135:1 1137:1 1138:1 1139:1 1143:1 1145:1 1148:1 1149:1 1150:1 1152:1 1153:1 1155:1 1156:1 1157:1 1160:1 1162:1 1171:1 1172:1 1173:1 1176:1 1177:1 1178:1 1180:1 1190:1 1191:1 1192:1 1196:1 1198:1 1199:1 1200:1 1203:1 1223:1 1248:1 1249:1 1253:1 1258:1 1262:1 1267:1 1273:1 1276:1 1277:1 1284:1 1285:1 1290:1 1292:1 1294:1 1295:1 1296:1 1297:1 1300:1 1302:1 1305:1 1306:1 1307:1 1310:1 1319:1 1321:1 1325:1 1327:1 1332:1 1335:1 1337:1 1338:1 1340:1 1343:1 1344:1 1349:1 1350:1 1353:1 1360:1 1361:1 1362:1 1363:1 1364:1 1365:1 1374:1 1375:1 1376:1 1377:1 1379:1 1383:1 1394:1 1409:1 1419:1 1427:1 1428:1 1429:1 1432:1 1433:1 1436:1 1441:1 1449:1 1450:1 1452:1 1453:1 1455:1 1456:1 1459:1 1471:1 1493:1 1499:1 1500:1 1501:1 
2 0 0 0 0 -0.5878941535749265 0 -1.241265157608707 0 -0.1708406888163667 0 1:1 4:1 5:1 8:1 10:1 11:1 16:1 19:1 23:1 25:1 27:1 29:1 30:1 31:1 35:1 36:1 38:1 40:1 41:1 42:1 49:1 50:1 53:1 54:1 58:1 60:1 61:1 63:1 65:1 67:1 70:1 72:1 76:1 81:1 85:1 87:1 89:1 91:1 93:1 103:1 106:1 107:1 112:1 114:1 117:1 119:1 120:1 123:1 125:1 126:1 127:1 128:1 129:1 131:1 132:1 133:1 134:1 137:1 138:1 139:1 140:1 142:1 143:1 147:1 150:1 151:1 152:1 155:1 158:1 166:1 167:1 168:1 169:1 170:1 171:1 172:1 173:1 177:1 180:1 182:1 185:1 189:1 190:1 191:1 192:1 193:1 195:1 196:1 198:1 199:1 202:1 203:1 205:1 206:1 209:1 210:1 213:1 214:1 216:1 220:1 221:1 223:1 230:1 232:1 235:1 236:1 240:1 241:1 242:1 243:1 246:1 249:1 250:1 252:1 254:1 255:1 256:1 259:1 263:1 266:1 267:1 268:1 274:1 275:1 276:1 277:1 279:1 280:1 283:1 284:1 287:1 290:1 292:1 293:1 294:1 301:1 303:1 309:1 310:1 311:1 318:1 319:1 320:1 321:1 322:1 324:1 326:1 330:1 331:1 332:1 334:1 335:1 336:1 338:1 340:1 341:1 365:1 373:1 374:1 376:1 385:1 396:1 471:1 477:1 489:1 523:1 524:1 536:1 593:1 596:1 597:1 611:1 612:1 613:1 620:1 621:1 641:1 643:1 662:1 664:1 682:1 686:1 691:1 704:1 710:1 734:1 742:1 747:1 760:1 767:1 769:1 770:1 773:1 776:1 783:1 784:1 787:1 788:1 797:1 801:1 808:1 829:1 830:1 859:1 861:1 868:1 882:1 883:1 889:1 897:1 902:1 903:1 905:1 908:1 911:1 926:1 929:1 934:1 942:1 978:1 992:1 996:1 1002:1 1004:1 1007:1 1008:1 1009:1 1021:1 1023:1 1039:1 1056:1 1074:1 1075:1 1079:1 1100:1 1120:1 1121:1 1137:1 1152:1 1160:1 1195:1 1196:1 1223:1 1248:1 1253:1 1258:1 1261:1 1273:1 1277:1 1280:1 1292:1 1296:1 1297:1 1306:1 1310:1 1311:1 1321:1 1340:1 1353:1 1360:1 1361:1 1362:1 1363:1 1364:1 1383:1 1394:1 1409:1 1427:1 1429:1 1433:1 1436:1 1449:1 1453:1 1459:1 1471:1 1493:1 1500:1 
0.521920398265362 -0.2533420084637432 -0.1137117362584692 0 0 0 0 0 0 -0.1548666535431498 0 4:1 10:1 11:1 18:1 19:1 20:1 21:1 23:1 24:1 27:1 29:1 30:1 40:1 42:1 48:1 51:1 78:1 79:1 87:1 92:1 96:1 105:1 113:1 114:1 124:1 128:1 130:1 149:1 153:1 156:1 161:1 169:1 189:1 203:1 208:1 212:1 221:1 227:1 228:1 229:1 249:1 253:1 259:1 260:1 261:1 270:1 271:1 272:1 290:1 299:1 318:1 325:1 333:1 351:1 362:1 370:1 373:1 374:1 376:1 383:1 385:1 415:1 417:1 431:1 433:1 434:1 436:1 441:1 489:1 497:1 503:1 511:1 512:1 524:1 529:1 569:1 570:1 575:1 577:1 593:1 596:1 597:1 608:1 612:1 613:1 616:1 620:1 621:1 622:1 643:1 668:1 682:1 684:1 708:1 721:1 726:1 728:1 761:1 768:1 773:1 781:1 805:1 806:1 808:1 816:1 817:1 859:1 888:1 889:1 905:1 910:1 912:1 915:1 919:1 930:1 933:1 940:1 949:1 950:1 972:1 974:1 988:1 992:1 993:1 1000:1 1062:1 1079:1 1129:1 1139:1 1149:1 1150:1 1159:1 1177:1 1180:1 1191:1 1198:1 1219:1 1220:1 1221:1 1261:1 1270:1 1290:1 1292:1 1293:1 1301:1 1321:1 1351:1 1362:1 1364:1 1365:1 1366:1 1376:1 1428:1 1452:1 1459:1 
0.4777171109155545 -0.05512630874443114 -0.4098955982524373 0 0 0 -0.01269520391868606 0 0 0 0 4:1 10:1 11:1 21:1 24:1 25:1 27:1 30:1 37:1 40:1 48:1 51:1 77:1 78:1 79:1 84:1 92:1 96:1 100:1 105:1 111:1 114:1 124:1 128:1 130:1 145:1 146:1 149:1 153:1 161:1 169:1 172:1 189:1 198:1 203:1 204:1 208:1 212:1 215:1 221:1 227:1 228:1 253:1 257:1 259:1 260:1 261:1 269:1 270:1 271:1 272:1 290:1 299:1 305:1 317:1 325:1 327:1 333:1 351:1 370:1 374:1 376:1 383:1 384:1 385:1 388:1 413:1 417:1 430:1 434:1 436:1 450:1 489:1 497:1 503:1 513:1 522:1 524:1 575:1 592:1 593:1 596:1 597:1 598:1 608:1 612:1 613:1 620:1 621:1 622:1 643:1 647:1 662:1 668:1 682:1 691:1 700:1 718:1 728:1 733:1 756:1 761:1 768:1 805:1 806:1 808:1 817:1 857:1 859:1 860:1 880:1 888:1 889:1 902:1 905:1 910:1 911:1 912:1 915:1 919:1 931:1 933:1 949:1 950:1 992:1 1000:1 1038:1 1070:1 1079:1 1096:1 1113:1 1156:1 1177:1 1191:1 1198:1 1219:1 1222:1 1286:1 1300:1 1305:1 1311:1 1320:1 1345:1 1353:1 1360:1 1361:1 1362:1 1364:1 1375:1 1376:1 1428:1 1433:1 1442:1 1446:1 1452:1 1463:1 
1.122139001557398 -0.410001744596262 0 0 0 -0.06977133049917046 0 0 0 -0.3802472808356482 -0.2621186456263171 2:1 4:1 10:1 18:1 24:1 25:1 130:1 153:1 189:1 260:1 359:1 373:1 374:1 396:1 413:1 417:1 443:1 464:1 489:1 568:1 573:1 577:1 593:1 596:1 597:1 598:1 608:1 611:1 612:1 613:1 620:1 621:1 622:1 643:1 663:1 708:1 710:1 721:1 726:1 763:1 808:1 868:1 874:1 889:1 901:1 905:1 940:1 949:1 950:1 965:1 992:1 1028:1 1059:1 1079:1 1090:1 1096:1 1120:1 1129:1 1146:1 1148:1 1150:1 1155:1 1192:1 1199:1 1200:1 1293:1 1295:1 1311:1 1321:1 1327:1 1332:1 1362:1 1366:1 1374:1 1433:1 
1.223965404213926 -0.376273037490507 0 0 0 0 0 0 -0.3420092001570583 -0.505683166566361 0 2:1 4:1 13:1 23:1 24:1 55:1 86:1 87:1 113:1 114:1 128:1 130:1 153:1 189:1 203:1 258:1 271:1 299:1 318:1 345:1 370:1 373:1 374:1 376:1 383:1 384:1 385:1 387:1 390:1 396:1 399:1 413:1 417:1 422:1 430:1 431:1 442:1 445:1 450:1 459:1 474:1 481:1 484:1 489:1 490:1 491:1 497:1 500:1 503:1 523:1 524:1 535:1 538:1 561:1 562:1 569:1 573:1 575:1 577:1 592:1 593:1 595:1 596:1 597:1 598:1 611:1 612:1 613:1 620:1 621:1 622:1 641:1 643:1 647:1 649:1 656:1 662:1 663:1 664:1 668:1 676:1 682:1 705:1 707:1 708:1 710:1 721:1 727:1 757:1 764:1 766:1 767:1 768:1 769:1 771:1 773:1 774:1 782:1 785:1 808:1 813:1 814:1 818:1 830:1 838:1 847:1 859:1 861:1 863:1 864:1 871:1 874:1 877:1 889:1 902:1 905:1 910:1 911:1 912:1 913:1 915:1 917:1 931:1 934:1 938:1 940:1 950:1 965:1 972:1 986:1 992:1 993:1 997:1 1000:1 1002:1 1003:1 1004:1 1034:1 1036:1 1038:1 1061:1 1070:1 1079:1 1080:1 1081:1 1083:1 1087:1 1093:1 1096:1 1100:1 1108:1 1111:1 1112:1 1137:1 1138:1 1139:1 1143:1 1145:1 1146:1 1151:1 1159:1 1160:1 1172:1 1173:1 1175:1 1180:1 1186:1 1191:1 1192:1 1196:1 1198:1 1199:1 1210:1 1224:1 1228:1 1233:1 1262:1 1268:1 1273:1 1274:1 1276:1 1280:1 1286:1 1290:1 1294:1 1296:1 1307:1 1310:1 1327:1 1328:1 1330:1 1331:1 1332:1 1335:1 1338:1 1349:1 1350:1 1353:1 1361:1 1362:1 1363:1 1364:1 1366:1 1369:1 1374:1 1375:1 1376:1 1378:1 1384:1 1428:1 1433:1 1446:1 1451:1 1452:1 1453:1 1455:1 1456:1 1459:1 1496:1 
0.7694361372841361 -0.522773000753196 0 0 0 0 0 0 0 -0.24666313653094 0 2:1 4:1 20:1 21:1 23:1 24:1 30:1 37:1 130:1 153:1 189:1 203:1 227:1 229:1 260:1 345:1 370:1 373:1 374:1 376:1 387:1 388:1 396:1 417:1 431:1 436:1 464:1 489:1 503:1 511:1 513:1 524:1 567:1 573:1 577:1 593:1 596:1 597:1 598:1 608:1 611:1 612:1 613:1 620:1 621:1 622:1 639:1 641:1 643:1 663:1 668:1 708:1 710:1 728:1 735:1 762:1 765:1 808:1 847:1 868:1 889:1 901:1 905:1 910:1 919:1 938:1 940:1 949:1 950:1 970:1 972:1 992:1 1001:1 1044:1 1061:1 1079:1 1080:1 1081:1 1120:1 1129:1 1148:1 1149:1 1150:1 1156:1 1200:1 1219:1 1248:1 1267:1 1292:1 1293:1 1295:1 1311:1 1327:1 1362:1 1364:1 1377:1 1433:1 1452:1 1462:1 
0.9534975796062501 -0.02491356525274111 -0.0468139099422765 -0.1472005105241777 0 0 0 0 -0.734569593887055 0 0 2:1 4:1 17:1 23:1 24:1 25:1 86:1 87:1 113:1 114:1 124:1 130:1 153:1 189:1 198:1 203:1 272:1 294:1 299:1 345:1 373:1 374:1 376:1 383:1 384:1 385:1 387:1 396:1 417:1 422:1 431:1 433:1 442:1 450:1 459:1 460:1 461:1 481:1 489:1 496:1 497:1 500:1 503:1 515:1 523:1 524:1 531:1 538:1 546:1 549:1 557:1 567:1 573:1 574:1 575:1 576:1 577:1 592:1 593:1 596:1 597:1 598:1 611:1 612:1 613:1 618:1 619:1 620:1 621:1 622:1 641:1 643:1 662:1 668:1 682:1 700:1 705:1 706:1 707:1 708:1 710:1 721:1 727:1 728:1 733:1 735:1 753:1 754:1 761:1 764:1 769:1 773:1 774:1 785:1 806:1 808:1 817:1 818:1 847:1 859:1 863:1 864:1 874:1 877:1 889:1 894:1 905:1 910:1 911:1 912:1 913:1 915:1 917:1 920:1 938:1 950:1 965:1 986:1 992:1 993:1 1000:1 1001:1 1003:1 1008:1 1018:1 1028:1 1036:1 1038:1 1049:1 1066:1 1070:1 1072:1 1079:1 1080:1 1081:1 1083:1 1087:1 1093:1 1100:1 1108:1 1111:1 1124:1 1126:1 1127:1 1135:1 1137:1 1138:1 1139:1 1143:1 1145:1 1146:1 1149:1 1153:1 1156:1 1160:1 1162:1 1167:1 1172:1 1174:1 1175:1 1176:1 1178:1 1180:1 1186:1 1191:1 1192:1 1196:1 1199:1 1200:1 1206:1 1207:1 1210:1 1248:1 1261:1 1262:1 1268:1 1273:1 1274:1 1276:1 1280:1 1283:1 1290:1 1291:1 1294:1 1295:1 1296:1 1310:1 1311:1 1327:1 1328:1 1330:1 1331:1 1332:1 1335:1 1336:1 1338:1 1353:1 1362:1 1363:1 1364:1 1367:1 1368:1 1369:1 1377:1 1386:1 1388:1 1428:1 1433:1 1452:1 1453:1 1459:1 1469:1 
0.643876795636704 -0.02967509089639072 -0.1959419192985313 0 0 0 0 -0.08174442979434089 0 -0.2417729589368859 -0.09474239671055547 2:1 4:1 11:1 20:1 24:1 30:1 130:1 153:1 161:1 189:1 271:1 325:1 351:1 373:1 374:1 376:1 383:1 396:1 417:1 431:1 464:1 489:1 503:1 504:1 523:1 524:1 570:1 573:1 575:1 577:1 593:1 596:1 597:1 598:1 607:1 608:1 612:1 613:1 620:1 621:1 622:1 643:1 668:1 682:1 710:1 728:1 735:1 757:1 760:1 764:1 765:1 808:1 817:1 818:1 847:1 868:1 874:1 889:1 905:1 910:1 912:1 913:1 918:1 919:1 920:1 930:1 950:1 978:1 986:1 992:1 997:1 1000:1 1079:1 1080:1 1090:1 1093:1 1096:1 1100:1 1112:1 1139:1 1150:1 1160:1 1186:1 1192:1 1196:1 1199:1 1261:1 1283:1 1295:1 1296:1 1301:1 1302:1 1310:1 1331:1 1335:1 1336:1 1361:1 1362:1 1364:1 1375:1 1386:1 1416:1 1433:1 1446:1 1451:1 
0.6280783529704517 -0.2894309248778069 0 0 0 0 0 0 -0.3386474280926444 0 0 2:1 4:1 10:1 11:1 18:1 20:1 21:1 24:1 27:1 29:1 42:1 51:1 55:1 78:1 86:1 96:1 99:1 105:1 130:1 153:1 182:1 189:1 203:1 204:1 227:1 248:1 249:1 257:1 270:1 271:1 299:1 345:1 351:1 373:1 374:1 376:1 388:1 391:1 396:1 412:1 415:1 417:1 431:1 434:1 443:1 446:1 460:1 464:1 481:1 489:1 490:1 494:1 503:1 506:1 507:1 511:1 513:1 515:1 520:1 523:1 524:1 527:1 546:1 549:1 561:1 562:1 567:1 568:1 571:1 573:1 592:1 593:1 596:1 597:1 598:1 608:1 611:1 612:1 613:1 619:1 620:1 621:1 622:1 640:1 641:1 643:1 662:1 663:1 668:1 682:1 683:1 705:1 707:1 710:1 716:1 721:1 727:1 728:1 735:1 747:1 757:1 760:1 761:1 762:1 763:1 764:1 765:1 785:1 806:1 808:1 817:1 818:1 824:1 829:1 830:1 844:1 845:1 847:1 854:1 859:1 868:1 871:1 874:1 877:1 888:1 889:1 905:1 910:1 912:1 913:1 917:1 919:1 928:1 930:1 931:1 938:1 940:1 946:1 949:1 950:1 970:1 972:1 986:1 989:1 992:1 993:1 997:1 1000:1 1001:1 1002:1 1020:1 1038:1 1044:1 1061:1 1069:1 1079:1 1081:1 1083:1 1087:1 1093:1 1094:1 1100:1 1111:1 1113:1 1121:1 1124:1 1139:1 1150:1 1154:1 1160:1 1166:1 1172:1 1173:1 1175:1 1176:1 1180:1 1185:1 1192:1 1196:1 1198:1 1199:1 1200:1 1206:1 1207:1 1210:1 1212:1 1220:1 1221:1 1253:1 1254:1 1262:1 1271:1 1273:1 1280:1 1282:1 1290:1 1295:1 1296:1 1300:1 1301:1 1307:1 1310:1 1319:1 1327:1 1331:1 1332:1 1336:1 1338:1 1342:1 1351:1 1353:1 1357:1 1361:1 1362:1 1364:1 1366:1 1367:1 1375:1 1414:1 1416:1 1428:1 1433:1 1446:1 1447:1 1451:1 1452:1 1455:1 1496:1 
0.6985672021113998 -0.2184596916226316 0 0 0 0 0 0 -0.3710342183783644 -0.1090732921104041 0 2:1 3:1 4:1 10:1 11:1 21:1 23:1 27:1 30:1 48:1 86:1 87:1 92:1 105:1 130:1 153:1 161:1 189:1 203:1 208:1 212:1 228:1 270:1 271:1 325:1 333:1 345:1 351:1 370:1 373:1 374:1 376:1 383:1 384:1 396:1 406:1 413:1 415:1 417:1 433:1 443:1 449:1 481:1 489:1 503:1 507:1 511:1 520:1 523:1 524:1 546:1 568:1 572:1 577:1 593:1 596:1 597:1 598:1 608:1 611:1 612:1 613:1 620:1 621:1 622:1 638:1 639:1 641:1 643:1 663:1 668:1 682:1 705:1 708:1 710:1 721:1 735:1 757:1 760:1 762:1 764:1 768:1 774:1 806:1 808:1 817:1 818:1 845:1 847:1 859:1 861:1 863:1 866:1 867:1 871:1 874:1 888:1 889:1 905:1 910:1 911:1 912:1 913:1 919:1 930:1 938:1 950:1 972:1 992:1 993:1 997:1 1000:1 1001:1 1011:1 1037:1 1039:1 1059:1 1068:1 1079:1 1080:1 1090:1 1093:1 1112:1 1117:1 1130:1 1135:1 1137:1 1148:1 1149:1 1150:1 1156:1 1173:1 1175:1 1192:1 1196:1 1198:1 1199:1 1219:1 1220:1 1222:1 1253:1 1258:1 1261:1 1262:1 1276:1 1290:1 1291:1 1294:1 1301:1 1305:1 1307:1 1310:1 1311:1 1319:1 1322:1 1331:1 1332:1 1336:1 1353:1 1362:1 1364:1 1365:1 1366:1 1376:1 1379:1 1384:1 1416:1 1428:1 1433:1 1462:1 1493:1 
1.34200839843685 -0.3750997949979586 -0.1805621687902731 0 -0.07973544343728538 0 0 0 -0.205397332761711 -0.501213658449622 0 4:1 7:1 10:1 11:1 19:1 20:1 21:1 27:1 29:1 30:1 31:1 37:1 40:1 75:1 78:1 79:1 96:1 105:1 114:1 124:1 153:1 161:1 182:1 189:1 203:1 227:1 228:1 229:1 253:1 260:1 272:1 275:1 298:1 299:1 317:1 325:1 327:1 345:1 351:1 365:1 370:1 373:1 374:1 376:1 387:1 396:1 419:1 434:1 436:1 440:1 449:1 463:1 464:1 481:1 483:1 489:1 503:1 504:1 507:1 511:1 520:1 521:1 523:1 524:1 527:1 529:1 553:1 567:1 568:1 592:1 593:1 596:1 597:1 598:1 607:1 608:1 611:1 612:1 613:1 616:1 620:1 621:1 622:1 641:1 643:1 663:1 668:1 673:1 682:1 710:1 716:1 717:1 718:1 735:1 747:1 808:1 817:1 854:1 859:1 882:1 889:1 905:1 910:1 912:1 931:1 933:1 934:1 940:1 949:1 950:1 962:1 963:1 974:1 988:1 992:1 993:1 1000:1 1040:1 1049:1 1079:1 1083:1 1117:1 1148:1 1157:1 1160:1 1166:1 1171:1 1172:1 1173:1 1176:1 1194:1 1196:1 1207:1 1219:1 1220:1 1221:1 1222:1 1225:1 1258:1 1267:1 1280:1 1282:1 1290:1 1295:1 1296:1 1310:1 1331:1 1332:1 1336:1 1338:1 1353:1 1356:1 1357:1 1361:1 1362:1 1363:1 1364:1 1365:1 1366:1 1375:1 1389:1 1416:1 1428:1 1433:1 1446:1 1452:1 1454:1 1463:1 1493:1 
0.6596365345857069 -0.2732042073219899 -0.1536750845530913 0 0 0 0 0 -0.1468815885087454 -0.08587565420188019 0 2:1 4:1 10:1 11:1 18:1 20:1 21:1 24:1 25:1 27:1 29:1 30:1 42:1 75:1 78:1 96:1 100:1 105:1 114:1 124:1 153:1 161:1 182:1 189:1 198:1 203:1 227:1 228:1 229:1 253:1 260:1 272:1 299:1 317:1 325:1 351:1 359:1 373:1 374:1 376:1 381:1 385:1 387:1 391:1 396:1 412:1 415:1 419:1 430:1 431:1 434:1 436:1 440:1 441:1 443:1 446:1 449:1 450:1 463:1 464:1 481:1 483:1 489:1 494:1 503:1 507:1 511:1 512:1 513:1 520:1 521:1 523:1 524:1 527:1 529:1 545:1 546:1 561:1 567:1 568:1 571:1 573:1 592:1 593:1 596:1 597:1 598:1 608:1 611:1 612:1 613:1 616:1 620:1 621:1 622:1 641:1 643:1 663:1 668:1 682:1 683:1 698:1 700:1 708:1 710:1 716:1 717:1 728:1 733:1 735:1 747:1 748:1 757:1 760:1 762:1 763:1 765:1 806:1 808:1 817:1 818:1 828:1 829:1 830:1 844:1 845:1 846:1 854:1 859:1 861:1 863:1 871:1 877:1 882:1 889:1 901:1 905:1 910:1 912:1 928:1 930:1 931:1 940:1 949:1 950:1 951:1 970:1 972:1 974:1 988:1 992:1 993:1 997:1 1000:1 1001:1 1002:1 1038:1 1044:1 1049:1 1061:1 1079:1 1083:1 1085:1 1093:1 1094:1 1096:1 1113:1 1117:1 1130:1 1135:1 1146:1 1150:1 1157:1 1166:1 1171:1 1172:1 1173:1 1175:1 1176:1 1178:1 1180:1 1185:1 1192:1 1196:1 1220:1 1221:1 1222:1 1253:1 1254:1 1258:1 1261:1 1262:1 1280:1 1282:1 1283:1 1290:1 1295:1 1300:1 1301:1 1302:1 1305:1 1310:1 1336:1 1341:1 1342:1 1345:1 1351:1 1353:1 1357:1 1360:1 1361:1 1362:1 1364:1 1366:1 1375:1 1377:1 1389:1 1414:1 1419:1 1428:1 1433:1 1446:1 1455:1 1493:1 
0.7451670885051502 -0.5783769487222086 0 0 0 0 0 0 -0.1483216670990108 -0.01846847268393037 0 4:1 10:1 11:1 18:1 19:1 20:1 21:1 23:1 25:1 27:1 29:1 30:1 48:1 75:1 78:1 79:1 96:1 105:1 114:1 124:1 153:1 161:1 182:1 189:1 198:1 203:1 227:1 228:1 229:1 253:1 258:1 260:1 272:1 299:1 317:1 325:1 327:1 345:1 346:1 351:1 359:1 370:1 373:1 374:1 376:1 383:1 384:1 385:1 387:1 388:1 389:1 391:1 396:1 405:1 415:1 419:1 433:1 434:1 436:1 440:1 447:1 449:1 461:1 463:1 464:1 474:1 481:1 484:1 485:1 489:1 490:1 500:1 503:1 504:1 507:1 511:1 512:1 518:1 520:1 521:1 523:1 524:1 527:1 529:1 530:1 536:1 539:1 560:1 567:1 568:1 572:1 592:1 593:1 596:1 597:1 598:1 600:1 608:1 611:1 612:1 613:1 614:1 616:1 620:1 621:1 622:1 641:1 643:1 663:1 668:1 673:1 676:1 682:1 683:1 684:1 698:1 700:1 708:1 710:1 716:1 717:1 728:1 732:1 735:1 753:1 757:1 758:1 760:1 761:1 762:1 763:1 765:1 767:1 768:1 773:1 785:1 787:1 805:1 806:1 808:1 816:1 817:1 818:1 828:1 830:1 845:1 846:1 854:1 857:1 859:1 860:1 861:1 863:1 866:1 868:1 870:1 871:1 877:1 889:1 895:1 901:1 905:1 910:1 911:1 912:1 928:1 930:1 931:1 933:1 940:1 946:1 949:1 950:1 970:1 974:1 986:1 988:1 992:1 993:1 1000:1 1001:1 1002:1 1007:1 1008:1 1011:1 1028:1 1032:1 1034:1 1036:1 1037:1 1038:1 1039:1 1047:1 1049:1 1055:1 1061:1 1062:1 1066:1 1069:1 1070:1 1071:1 1079:1 1083:1 1094:1 1096:1 1104:1 1112:1 1113:1 1117:1 1120:1 1121:1 1126:1 1129:1 1130:1 1135:1 1137:1 1143:1 1148:1 1149:1 1150:1 1157:1 1160:1 1166:1 1168:1 1171:1 1172:1 1173:1 1176:1 1177:1 1178:1 1180:1 1185:1 1192:1 1196:1 1200:1 1207:1 1219:1 1220:1 1221:1 1222:1 1224:1 1248:1 1253:1 1254:1 1258:1 1262:1 1267:1 1280:1 1282:1 1290:1 1294:1 1295:1 1296:1 1300:1 1301:1 1302:1 1305:1 1310:1 1311:1 1319:1 1320:1 1327:1 1331:1 1332:1 1336:1 1342:1 1349:1 1351:1 1353:1 1357:1 1360:1 1361:1 1362:1 1364:1 1365:1 1366:1 1369:1 1374:1 1375:1 1384:1 1389:1 1414:1 1419:1 1428:1 1433:1 1442:1 1446:1 1449:1 1451:1 1459:1 1462:1 1496:1 
0.1245620224695236 -0.06882080544633462 0 0 0 0 0 0 -0.05053852981862939 -0.005202687204559631 0 2:1 4:1 10:1 11:1 18:1 21:1 24:1 25:1 27:1 51:1 78:1 153:1 189:1 198:1 203:1 212:1 228:1 229:1 257:1 270:1 271:1 290:1 299:1 351:1 370:1 373:1 374:1 376:1 381:1 383:1 385:1 396:1 406:1 413:1 417:1 431:1 436:1 440:1 443:1 459:1 464:1 478:1 481:1 489:1 494:1 503:1 507:1 511:1 515:1 519:1 523:1 524:1 527:1 535:1 541:1 546:1 567:1 568:1 570:1 577:1 592:1 593:1 596:1 597:1 598:1 608:1 611:1 612:1 613:1 616:1 620:1 621:1 622:1 641:1 643:1 663:1 668:1 673:1 682:1 705:1 708:1 710:1 726:1 735:1 757:1 760:1 761:1 762:1 764:1 765:1 774:1 808:1 817:1 818:1 844:1 847:1 854:1 859:1 863:1 874:1 883:1 888:1 889:1 901:1 905:1 910:1 912:1 913:1 918:1 919:1 931:1 933:1 938:1 946:1 949:1 950:1 951:1 970:1 972:1 986:1 992:1 993:1 997:1 1000:1 1001:1 1004:1 1008:1 1011:1 1020:1 1034:1 1037:1 1049:1 1058:1 1059:1 1079:1 1080:1 1093:1 1096:1 1100:1 1111:1 1129:1 1135:1 1136:1 1150:1 1160:1 1172:1 1173:1 1175:1 1192:1 1196:1 1199:1 1220:1 1248:1 1262:1 1267:1 1268:1 1270:1 1280:1 1286:1 1310:1 1322:1 1327:1 1330:1 1331:1 1332:1 1335:1 1338:1 1353:1 1361:1 1362:1 1363:1 1364:1 1365:1 1366:1 1374:1 1375:1 1376:1 1384:1 1428:1 1433:1 1436:1 1446:1 1452:1 1456:1 1459:1 
2 0 0 0 0 0 0 0 0 -1.914644498641103 -0.08535550135889713 2:1 4:1 24:1 30:1 124:1 153:1 161:1 189:1 203:1 227:1 244:1 260:1 272:1 325:1 370:1 374:1 376:1 396:1 417:1 431:1 481:1 489:1 503:1 504:1 524:1 593:1 596:1 597:1 598:1 608:1 611:1 612:1 613:1 620:1 621:1 622:1 641:1 643:1 668:1 682:1 708:1 710:1 726:1 728:1 757:1 761:1 764:1 765:1 808:1 817:1 818:1 868:1 889:1 905:1 912:1 940:1 970:1 972:1 989:1 992:1 993:1 1000:1 1079:1 1121:1 1130:1 1149:1 1175:1 1219:1 1221:1 1301:1 1310:1 1327:1 1353:1 1357:1 1364:1 1431:1 1433:1 1463:1 
0.8496413871864996 -0.3338733545117596 -0.1307174148921529 0 0 0 -0.01084031842176832 0 -0.1565436824240774 -0.2176666169367412 0 2:1 4:1 10:1 11:1 17:1 18:1 19:1 20:1 21:1 27:1 28:1 29:1 30:1 37:1 40:1 48:1 51:1 75:1 78:1 79:1 80:1 96:1 98:1 105:1 124:1 153:1 160:1 161:1 182:1 189:1 203:1 212:1 227:1 228:1 229:1 253:1 259:1 270:1 272:1 290:1 298:1 299:1 317:1 325:1 346:1 351:1 359:1 365:1 370:1 373:1 374:1 376:1 381:1 383:1 384:1 385:1 387:1 388:1 391:1 392:1 396:1 412:1 415:1 417:1 419:1 430:1 431:1 433:1 434:1 436:1 440:1 443:1 445:1 447:1 450:1 461:1 463:1 464:1 481:1 483:1 489:1 494:1 497:1 503:1 504:1 507:1 511:1 512:1 513:1 515:1 519:1 521:1 522:1 523:1 524:1 527:1 529:1 530:1 538:1 539:1 545:1 546:1 567:1 568:1 570:1 573:1 577:1 582:1 583:1 592:1 593:1 596:1 597:1 598:1 600:1 606:1 607:1 608:1 611:1 612:1 613:1 614:1 620:1 621:1 622:1 638:1 641:1 643:1 647:1 649:1 656:1 663:1 668:1 682:1 684:1 700:1 702:1 705:1 707:1 708:1 710:1 716:1 726:1 728:1 735:1 747:1 757:1 760:1 761:1 762:1 763:1 764:1 765:1 768:1 769:1 785:1 787:1 808:1 816:1 817:1 818:1 830:1 837:1 844:1 845:1 846:1 854:1 857:1 859:1 860:1 861:1 863:1 866:1 868:1 870:1 871:1 881:1 889:1 898:1 901:1 902:1 905:1 910:1 911:1 912:1 928:1 930:1 931:1 933:1 934:1 938:1 940:1 941:1 946:1 949:1 950:1 951:1 962:1 963:1 970:1 972:1 974:1 986:1 988:1 992:1 993:1 997:1 1000:1 1001:1 1002:1 1008:1 1011:1 1034:1 1037:1 1038:1 1039:1 1040:1 1043:1 1047:1 1049:1 1054:1 1055:1 1059:1 1061:1 1062:1 1069:1 1070:1 1079:1 1081:1 1083:1 1087:1 1090:1 1093:1 1094:1 1095:1 1096:1 1101:1 1108:1 1113:1 1117:1 1120:1 1121:1 1125:1 1129:1 1130:1 1136:1 1137:1 1138:1 1148:1 1149:1 1150:1 1155:1 1156:1 1157:1 1160:1 1166:1 1167:1 1168:1 1171:1 1172:1 1173:1 1175:1 1176:1 1177:1 1178:1 1180:1 1185:1 1186:1 1192:1 1196:1 1198:1 1200:1 1201:1 1207:1 1219:1 1220:1 1221:1 1222:1 1224:1 1225:1 1226:1 1248:1 1262:1 1267:1 1276:1 1280:1 1282:1 1283:1 1290:1 1293:1 1295:1 1300:1 1302:1 1305:1 1310:1 1311:1 1317:1 1319:1 1320:1 1322:1 1327:1 1331:1 1332:1 1333:1 1335:1 1336:1 1338:1 1339:1 1345:1 1349:1 1350:1 1351:1 1353:1 1357:1 1360:1 1361:1 1362:1 1363:1 1364:1 1365:1 1366:1 1367:1 1369:1 1374:1 1375:1 1376:1 1377:1 1384:1 1386:1 1389:1 1419:1 1428:1 1429:1 1432:1 1433:1 1442:1 1443:1 1449:1 1451:1 1452:1 1455:1 1459:1 1462:1 1463:1 1474:1 1496:1 
1.386648680573715 -0.2961192521862078 0 0 0 0 0 -0.446270831039029 -0.06734519801405878 -0.5769133993344201 0 2:1 4:1 10:1 29:1 30:1 105:1 124:1 153:1 161:1 189:1 203:1 227:1 229:1 253:1 260:1 272:1 309:1 325:1 345:1 359:1 362:1 365:1 370:1 373:1 374:1 376:1 381:1 396:1 402:1 413:1 417:1 430:1 431:1 443:1 481:1 489:1 497:1 500:1 503:1 507:1 511:1 513:1 524:1 567:1 592:1 593:1 596:1 597:1 598:1 600:1 608:1 611:1 612:1 613:1 620:1 621:1 622:1 641:1 643:1 659:1 664:1 668:1 673:1 682:1 698:1 705:1 710:1 728:1 735:1 764:1 765:1 808:1 817:1 833:1 846:1 868:1 889:1 902:1 905:1 910:1 911:1 933:1 949:1 950:1 951:1 972:1 988:1 989:1 992:1 993:1 1002:1 1008:1 1038:1 1039:1 1049:1 1079:1 1120:1 1121:1 1129:1 1137:1 1152:1 1155:1 1156:1 1160:1 1166:1 1167:1 1168:1 1171:1 1173:1 1175:1 1192:1 1196:1 1200:1 1219:1 1220:1 1224:1 1248:1 1267:1 1283:1 1287:1 1290:1 1295:1 1300:1 1301:1 1305:1 1310:1 1311:1 1320:1 1351:1 1353:1 1362:1 1363:1 1366:1 1368:1 1375:1 1376:1 1377:1 1433:1 1452:1 
2 0 -0.2842166602180536 0 0 0 0 0 0 -1.715783339781946 0 2:1 4:1 27:1 29:1 30:1 105:1 124:1 153:1 161:1 189:1 227:1 229:1 259:1 272:1 325:1 373:1 374:1 376:1 383:1 385:1 417:1 419:1 489:1 503:1 524:1 527:1 568:1 593:1 596:1 597:1 598:1 607:1 608:1 612:1 613:1 620:1 621:1 622:1 638:1 641:1 643:1 682:1 710:1 728:1 765:1 768:1 808:1 874:1 889:1 905:1 910:1 933:1 940:1 949:1 988:1 993:1 1061:1 1079:1 1093:1 1117:1 1160:1 1172:1 1196:1 1276:1 1295:1 1302:1 1310:1 1353:1 1363:1 1364:1 1366:1 1433:1 1446:1 
1.286288221334452 -1.047485539890369 -0.135232606701629 0 0 0 0 0 0 -0.1035700747424542 0 2:1 10:1 11:1 17:1 26:1 27:1 30:1 75:1 105:1 153:1 161:1 189:1 203:1 208:1 227:1 228:1 229:1 253:1 259:1 270:1 272:1 299:1 317:1 325:1 351:1 370:1 373:1 374:1 376:1 381:1 383:1 384:1 385:1 391:1 392:1 396:1 413:1 415:1 417:1 419:1 422:1 430:1 431:1 436:1 440:1 443:1 461:1 463:1 464:1 481:1 489:1 494:1 496:1 497:1 502:1 503:1 507:1 512:1 513:1 523:1 524:1 527:1 570:1 592:1 593:1 596:1 597:1 598:1 607:1 608:1 611:1 612:1 613:1 614:1 616:1 620:1 621:1 622:1 641:1 643:1 647:1 656:1 659:1 662:1 663:1 668:1 681:1 682:1 700:1 708:1 710:1 726:1 732:1 735:1 753:1 754:1 764:1 765:1 768:1 769:1 805:1 808:1 816:1 833:1 838:1 859:1 861:1 870:1 874:1 880:1 889:1 901:1 902:1 905:1 910:1 928:1 931:1 933:1 940:1 946:1 949:1 950:1 951:1 963:1 972:1 974:1 988:1 989:1 992:1 993:1 997:1 1001:1 1028:1 1037:1 1040:1 1049:1 1062:1 1079:1 1093:1 1094:1 1096:1 1108:1 1120:1 1121:1 1125:1 1129:1 1130:1 1135:1 1138:1 1145:1 1150:1 1153:1 1157:1 1160:1 1166:1 1171:1 1172:1 1175:1 1176:1 1177:1 1178:1 1191:1 1194:1 1196:1 1200:1 1219:1 1220:1 1221:1 1222:1 1225:1 1253:1 1258:1 1268:1 1269:1 1283:1 1290:1 1295:1 1300:1 1301:1 1302:1 1305:1 1310:1 1332:1 1333:1 1338:1 1339:1 1342:1 1345:1 1353:1 1357:1 1363:1 1364:1 1365:1 1366:1 1376:1 1377:1 1389:1 1414:1 1419:1 1429:1 1432:1 1433:1 1446:1 1451:1 1452:1 1459:1 
1.066873477235988 -0.5701513168656119 -0.1072500580007093 0 0 0 0 0 -0.2140087993249459 -0.1754633030447214 0 2:1 4:1 10:1 11:1 13:1 17:1 18:1 20:1 21:1 27:1 29:1 30:1 42:1 55:1 75:1 79:1 100:1 105:1 145:1 153:1 161:1 189:1 198:1 203:1 208:1 227:1 228:1 229:1 253:1 259:1 272:1 299:1 317:1 325:1 327:1 346:1 351:1 370:1 373:1 374:1 376:1 381:1 383:1 384:1 385:1 387:1 388:1 391:1 392:1 393:1 396:1 399:1 402:1 413:1 415:1 417:1 419:1 422:1 430:1 431:1 433:1 434:1 436:1 440:1 442:1 450:1 461:1 464:1 481:1 484:1 485:1 489:1 494:1 496:1 497:1 503:1 506:1 507:1 511:1 512:1 513:1 515:1 519:1 521:1 523:1 524:1 527:1 534:1 536:1 545:1 546:1 549:1 560:1 570:1 571:1 573:1 584:1 592:1 593:1 596:1 597:1 598:1 600:1 607:1 608:1 611:1 612:1 613:1 616:1 620:1 621:1 622:1 641:1 643:1 647:1 649:1 655:1 659:1 660:1 662:1 663:1 664:1 668:1 673:1 682:1 700:1 702:1 705:1 706:1 708:1 710:1 717:1 721:1 728:1 735:1 753:1 754:1 760:1 761:1 764:1 765:1 766:1 768:1 773:1 785:1 805:1 808:1 816:1 817:1 824:1 829:1 837:1 845:1 846:1 854:1 859:1 864:1 866:1 868:1 870:1 871:1 883:1 889:1 901:1 902:1 905:1 910:1 911:1 918:1 930:1 931:1 933:1 934:1 940:1 946:1 949:1 950:1 951:1 963:1 970:1 972:1 974:1 986:1 988:1 989:1 992:1 993:1 997:1 1000:1 1011:1 1028:1 1034:1 1037:1 1038:1 1040:1 1041:1 1049:1 1061:1 1062:1 1066:1 1070:1 1079:1 1093:1 1094:1 1095:1 1096:1 1100:1 1101:1 1104:1 1108:1 1111:1 1113:1 1121:1 1129:1 1130:1 1131:1 1137:1 1153:1 1156:1 1157:1 1160:1 1166:1 1171:1 1172:1 1175:1 1176:1 1178:1 1191:1 1192:1 1194:1 1196:1 1198:1 1203:1 1219:1 1220:1 1221:1 1222:1 1224:1 1225:1 1226:1 1248:1 1258:1 1262:1 1263:1 1268:1 1269:1 1273:1 1275:1 1283:1 1290:1 1295:1 1296:1 1297:1 1300:1 1301:1 1302:1 1305:1 1306:1 1310:1 1327:1 1332:1 1342:1 1345:1 1353:1 1357:1 1361:1 1362:1 1363:1 1364:1 1365:1 1366:1 1369:1 1374:1 1375:1 1376:1 1377:1 1386:1 1389:1 1414:1 1419:1 1428:1 1431:1 1432:1 1433:1 1452:1 1459:1 1463:1 1470:1 1496:1 
1.64691382033966 -0.6156211973441466 0 -0.2168759029338021 0 -0.04878919114442556 0 0 -0.4318867445582257 -0.1023455794842438 -0.2313952048748162 2:1 10:1 11:1 27:1 55:1 105:1 153:1 161:1 182:1 189:1 198:1 203:1 208:1 229:1 259:1 272:1 299:1 325:1 345:1 370:1 373:1 374:1 376:1 387:1 392:1 396:1 417:1 430:1 431:1 442:1 443:1 450:1 461:1 489:1 490:1 497:1 503:1 524:1 529:1 567:1 573:1 593:1 596:1 597:1 598:1 608:1 611:1 612:1 613:1 620:1 621:1 622:1 641:1 643:1 646:1 662:1 663:1 668:1 673:1 676:1 700:1 702:1 708:1 710:1 735:1 764:1 765:1 767:1 768:1 808:1 817:1 818:1 827:1 868:1 877:1 883:1 889:1 905:1 910:1 911:1 928:1 930:1 931:1 933:1 940:1 950:1 970:1 972:1 988:1 992:1 993:1 1000:1 1038:1 1049:1 1055:1 1079:1 1087:1 1093:1 1108:1 1117:1 1137:1 1143:1 1149:1 1156:1 1162:1 1172:1 1175:1 1176:1 1177:1 1178:1 1180:1 1192:1 1196:1 1200:1 1225:1 1261:1 1275:1 1282:1 1287:1 1295:1 1296:1 1300:1 1301:1 1310:1 1311:1 1327:1 1333:1 1338:1 1353:1 1361:1 1364:1 1366:1 1375:1 1419:1 1433:1 1458:1 
1.034562816857792 -0.3500721626964096 -0.1860653470345555 -0.1257420787063526 0 0 0 -0.3726832284204749 0 0 0 2:1 10:1 11:1 17:1 20:1 27:1 29:1 30:1 42:1 153:1 161:1 189:1 203:1 208:1 227:1 229:1 253:1 259:1 272:1 325:1 345:1 359:1 373:1 374:1 376:1 381:1 384:1 387:1 390:1 391:1 402:1 413:1 417:1 425:1 426:1 431:1 433:1 436:1 453:1 461:1 464:1 481:1 485:1 489:1 490:1 497:1 503:1 507:1 523:1 524:1 527:1 529:1 533:1 534:1 545:1 554:1 567:1 568:1 570:1 573:1 575:1 592:1 593:1 596:1 597:1 598:1 604:1 608:1 611:1 612:1 613:1 620:1 621:1 622:1 641:1 643:1 656:1 668:1 673:1 682:1 683:1 700:1 705:1 708:1 710:1 728:1 734:1 735:1 754:1 764:1 765:1 768:1 782:1 808:1 817:1 828:1 845:1 863:1 868:1 881:1 889:1 905:1 910:1 918:1 928:1 933:1 934:1 940:1 948:1 949:1 950:1 951:1 962:1 970:1 972:1 974:1 988:1 992:1 993:1 1001:1 1008:1 1034:1 1038:1 1041:1 1049:1 1066:1 1069:1 1079:1 1093:1 1117:1 1120:1 1129:1 1130:1 1135:1 1137:1 1150:1 1152:1 1156:1 1160:1 1162:1 1167:1 1168:1 1172:1 1175:1 1178:1 1185:1 1192:1 1196:1 1212:1 1261:1 1267:1 1283:1 1286:1 1290:1 1295:1 1296:1 1301:1 1310:1 1311:1 1320:1 1348:1 1364:1 1366:1 1367:1 1374:1 1375:1 1377:1 1389:1 1419:1 1428:1 1433:1 1452:1 1456:1 
0.7460007704817133 -0.5130932547930883 0 0 0 0 0 0 0 -0.2329075156886247 0 2:1 4:1 10:1 11:1 12:1 17:1 18:1 27:1 28:1 29:1 30:1 56:1 75:1 79:1 100:1 105:1 114:1 153:1 161:1 189:1 203:1 208:1 227:1 228:1 229:1 243:1 253:1 259:1 299:1 317:1 325:1 346:1 351:1 359:1 362:1 365:1 370:1 373:1 374:1 376:1 381:1 383:1 384:1 385:1 388:1 390:1 391:1 392:1 393:1 396:1 404:1 405:1 413:1 415:1 417:1 419:1 422:1 430:1 431:1 433:1 436:1 440:1 443:1 446:1 449:1 450:1 461:1 463:1 464:1 481:1 485:1 489:1 494:1 496:1 497:1 500:1 501:1 503:1 504:1 507:1 511:1 512:1 513:1 518:1 523:1 524:1 527:1 528:1 529:1 530:1 546:1 561:1 567:1 568:1 570:1 571:1 572:1 573:1 577:1 592:1 593:1 596:1 597:1 598:1 600:1 604:1 607:1 608:1 611:1 612:1 613:1 614:1 616:1 620:1 621:1 622:1 638:1 639:1 641:1 643:1 647:1 649:1 656:1 660:1 662:1 663:1 668:1 673:1 676:1 681:1 682:1 683:1 684:1 698:1 700:1 702:1 708:1 710:1 716:1 717:1 726:1 728:1 732:1 734:1 735:1 753:1 754:1 757:1 760:1 761:1 762:1 763:1 764:1 765:1 768:1 769:1 772:1 805:1 806:1 808:1 816:1 817:1 823:1 824:1 830:1 844:1 845:1 846:1 849:1 854:1 857:1 859:1 860:1 861:1 863:1 864:1 870:1 871:1 877:1 882:1 889:1 901:1 905:1 910:1 911:1 918:1 928:1 930:1 931:1 933:1 938:1 940:1 946:1 949:1 950:1 951:1 962:1 970:1 972:1 974:1 986:1 988:1 989:1 992:1 993:1 997:1 1000:1 1001:1 1002:1 1011:1 1028:1 1040:1 1043:1 1049:1 1055:1 1061:1 1066:1 1069:1 1071:1 1079:1 1085:1 1093:1 1094:1 1095:1 1096:1 1101:1 1103:1 1108:1 1113:1 1117:1 1120:1 1121:1 1129:1 1130:1 1135:1 1136:1 1137:1 1138:1 1139:1 1149:1 1150:1 1155:1 1156:1 1157:1 1160:1 1166:1 1171:1 1172:1 1173:1 1175:1 1176:1 1177:1 1178:1 1180:1 1191:1 1192:1 1196:1 1203:1 1215:1 1219:1 1220:1 1221:1 1222:1 1224:1 1225:1 1248:1 1254:1 1258:1 1262:1 1268:1 1271:1 1273:1 1275:1 1290:1 1295:1 1300:1 1301:1 1302:1 1305:1 1306:1 1310:1 1320:1 1327:1 1331:1 1332:1 1333:1 1336:1 1341:1 1342:1 1345:1 1349:1 1351:1 1353:1 1357:1 1360:1 1363:1 1364:1 1365:1 1366:1 1367:1 1369:1 1374:1 1375:1 1376:1 1377:1 1379:1 1386:1 1389:1 1414:1 1419:1 1428:1 1431:1 1433:1 1442:1 1443:1 1446:1 1447:1 1448:1 1449:1 1451:1 1452:1 1455:1 1458:1 1459:1 1462:1 1463:1 1470:1 1493:1 1496:1 
0.7570781881041457 -0.4429414273788441 0 0 0 0 0 0 0 -0.3141367607253016 0 10:1 11:1 17:1 30:1 153:1 161:1 182:1 189:1 203:1 208:1 227:1 259:1 272:1 299:1 325:1 345:1 370:1 373:1 374:1 376:1 387:1 388:1 393:1 396:1 413:1 419:1 430:1 436:1 481:1 485:1 489:1 497:1 503:1 507:1 511:1 513:1 518:1 524:1 570:1 577:1 592:1 593:1 596:1 597:1 598:1 608:1 611:1 612:1 613:1 620:1 621:1 622:1 641:1 643:1 662:1 668:1 673:1 682:1 683:1 685:1 694:1 698:1 700:1 708:1 710:1 735:1 765:1 768:1 808:1 814:1 817:1 818:1 829:1 830:1 837:1 855:1 868:1 883:1 889:1 894:1 901:1 902:1 905:1 910:1 911:1 928:1 931:1 949:1 950:1 962:1 963:1 974:1 986:1 988:1 989:1 992:1 993:1 1001:1 1007:1 1028:1 1036:1 1040:1 1049:1 1079:1 1120:1 1121:1 1124:1 1129:1 1130:1 1135:1 1150:1 1152:1 1156:1 1159:1 1167:1 1168:1 1172:1 1192:1 1196:1 1201:1 1220:1 1222:1 1224:1 1225:1 1248:1 1258:1 1267:1 1282:1 1295:1 1305:1 1310:1 1311:1 1317:1 1320:1 1327:1 1331:1 1338:1 1339:1 1341:1 1356:1 1357:1 1362:1 1363:1 1364:1 1366:1 1374:1 1375:1 1377:1 1419:1 1431:1 1433:1 1446:1 1462:1 
0.6302104849274008 -0.195568952004658 0 -0.05440095542494472 0 -0.2180923538267954 0 0 -0.04527614001405955 -0.1168720836569437 0 2:1 4:1 11:1 17:1 27:1 30:1 79:1 105:1 114:1 124:1 153:1 161:1 182:1 189:1 203:1 227:1 228:1 229:1 253:1 259:1 272:1 299:1 325:1 345:1 370:1 373:1 374:1 376:1 381:1 385:1 387:1 388:1 396:1 417:1 419:1 431:1 433:1 435:1 436:1 448:1 459:1 461:1 481:1 483:1 489:1 497:1 503:1 507:1 511:1 513:1 523:1 524:1 527:1 529:1 546:1 577:1 592:1 593:1 595:1 596:1 597:1 598:1 600:1 608:1 611:1 612:1 613:1 616:1 620:1 621:1 622:1 641:1 643:1 668:1 673:1 682:1 683:1 684:1 694:1 695:1 700:1 708:1 710:1 726:1 728:1 735:1 760:1 764:1 767:1 768:1 788:1 808:1 813:1 814:1 817:1 818:1 829:1 830:1 846:1 854:1 868:1 870:1 877:1 883:1 889:1 901:1 902:1 905:1 910:1 930:1 931:1 933:1 934:1 938:1 949:1 950:1 965:1 970:1 972:1 992:1 993:1 997:1 1000:1 1001:1 1002:1 1036:1 1037:1 1061:1 1079:1 1083:1 1087:1 1093:1 1121:1 1129:1 1138:1 1145:1 1152:1 1155:1 1156:1 1159:1 1167:1 1168:1 1171:1 1172:1 1176:1 1177:1 1178:1 1192:1 1196:1 1200:1 1203:1 1225:1 1248:1 1253:1 1262:1 1267:1 1286:1 1287:1 1290:1 1300:1 1305:1 1310:1 1311:1 1319:1 1320:1 1327:1 1332:1 1333:1 1338:1 1351:1 1353:1 1356:1 1360:1 1364:1 1366:1 1374:1 1375:1 1376:1 1377:1 1386:1 1389:1 1414:1 1429:1 1431:1 1433:1 1446:1 1455:1 1462:1 
2 0 0 0 0 0 0 0 0 -2 0 10:1 11:1 17:1 18:1 27:1 28:1 124:1 153:1 161:1 189:1 229:1 253:1 260:1 272:1 325:1 345:1 373:1 374:1 376:1 391:1 396:1 417:1 419:1 433:1 448:1 449:1 489:1 494:1 497:1 503:1 507:1 512:1 524:1 593:1 597:1 598:1 608:1 611:1 612:1 613:1 620:1 621:1 622:1 643:1 662:1 663:1 673:1 682:1 683:1 710:1 735:1 768:1 808:1 817:1 829:1 830:1 889:1 901:1 905:1 910:1 949:1 992:1 993:1 1079:1 1137:1 1148:1 1149:1 1168:1 1171:1 1180:1 1192:1 1203:1 1225:1 1248:1 1262:1 1290:1 1295:1 1310:1 1311:1 1364:1 1376:1 1377:1 1431:1 1433:1 1455:1 
0.7820974880718239 -0.2533197812881063 0 0 0 -0.07597541216396131 0 0 -0.4528022946197561 0 0 1:1 4:1 5:1 8:1 10:1 11:1 12:1 15:1 16:1 17:1 18:1 19:1 20:1 21:1 23:1 24:1 25:1 27:1 29:1 30:1 31:1 35:1 36:1 38:1 40:1 41:1 42:1 48:1 49:1 50:1 51:1 53:1 54:1 58:1 60:1 61:1 63:1 65:1 67:1 70:1 72:1 73:1 75:1 76:1 79:1 81:1 85:1 86:1 87:1 89:1 91:1 93:1 94:1 96:1 98:1 99:1 103:1 106:1 107:1 112:1 114:1 117:1 119:1 120:1 123:1 124:1 125:1 126:1 127:1 128:1 129:1 131:1 132:1 133:1 134:1 137:1 138:1 139:1 140:1 142:1 143:1 147:1 148:1 150:1 151:1 152:1 155:1 158:1 166:1 167:1 168:1 169:1 170:1 171:1 172:1 173:1 177:1 180:1 182:1 185:1 189:1 190:1 191:1 192:1 193:1 195:1 196:1 198:1 199:1 202:1 203:1 205:1 206:1 208:1 209:1 210:1 212:1 213:1 214:1 216:1 220:1 221:1 223:1 227:1 228:1 229:1 230:1 232:1 235:1 236:1 240:1 241:1 242:1 243:1 246:1 249:1 250:1 252:1 253:1 254:1 255:1 256:1 257:1 259:1 260:1 263:1 266:1 267:1 268:1 271:1 272:1 274:1 275:1 276:1 277:1 279:1 280:1 283:1 284:1 287:1 288:1 290:1 292:1 293:1 294:1 295:1 301:1 303:1 309:1 310:1 311:1 317:1 318:1 319:1 320:1 321:1 322:1 324:1 326:1 330:1 331:1 332:1 334:1 335:1 336:1 338:1 340:1 341:1 345:1 351:1 365:1 370:1 373:1 374:1 376:1 378:1 382:1 383:1 384:1 387:1 388:1 389:1 390:1 391:1 396:1 405:1 406:1 412:1 415:1 417:1 430:1 432:1 433:1 434:1 436:1 440:1 442:1 444:1 445:1 449:1 450:1 459:1 460:1 461:1 463:1 464:1 471:1 474:1 477:1 481:1 483:1 484:1 489:1 490:1 491:1 494:1 499:1 500:1 503:1 504:1 507:1 511:1 512:1 513:1 518:1 521:1 523:1 524:1 534:1 535:1 536:1 538:1 539:1 547:1 567:1 568:1 571:1 572:1 574:1 575:1 578:1 592:1 593:1 596:1 597:1 598:1 599:1 607:1 608:1 611:1 612:1 613:1 614:1 617:1 618:1 619:1 620:1 621:1 622:1 623:1 626:1 627:1 629:1 638:1 641:1 643:1 645:1 646:1 647:1 648:1 662:1 663:1 664:1 666:1 668:1 673:1 676:1 682:1 683:1 686:1 691:1 700:1 704:1 705:1 707:1 710:1 716:1 721:1 724:1 726:1 727:1 728:1 731:1 734:1 735:1 742:1 747:1 753:1 760:1 761:1 762:1 765:1 766:1 767:1 768:1 769:1 770:1 773:1 774:1 776:1 779:1 781:1 783:1 784:1 785:1 787:1 788:1 797:1 805:1 806:1 808:1 817:1 818:1 828:1 829:1 830:1 832:1 836:1 837:1 841:1 844:1 845:1 846:1 847:1 854:1 859:1 860:1 863:1 866:1 868:1 870:1 871:1 874:1 877:1 882:1 883:1 889:1 902:1 903:1 905:1 908:1 910:1 911:1 912:1 913:1 914:1 916:1 918:1 926:1 928:1 929:1 930:1 931:1 933:1 934:1 937:1 938:1 940:1 942:1 946:1 949:1 950:1 951:1 965:1 970:1 973:1 974:1 976:1 978:1 986:1 988:1 991:1 992:1 993:1 994:1 996:1 998:1 1000:1 1001:1 1002:1 1003:1 1004:1 1007:1 1008:1 1009:1 1010:1 1011:1 1020:1 1021:1 1023:1 1028:1 1031:1 1034:1 1037:1 1038:1 1039:1 1040:1 1041:1 1044:1 1049:1 1054:1 1055:1 1056:1 1059:1 1066:1 1068:1 1069:1 1070:1 1071:1 1073:1 1074:1 1075:1 1079:1 1080:1 1082:1 1083:1 1087:1 1090:1 1095:1 1096:1 1097:1 1100:1 1101:1 1104:1 1109:1 1111:1 1112:1 1117:1 1120:1 1121:1 1129:1 1130:1 1137:1 1138:1 1143:1 1145:1 1146:1 1149:1 1150:1 1151:1 1152:1 1154:1 1156:1 1157:1 1159:1 1160:1 1162:1 1166:1 1167:1 1168:1 1171:1 1172:1 1173:1 1176:1 1177:1 1178:1 1180:1 1185:1 1186:1 1190:1 1192:1 1194:1 1195:1 1196:1 1198:1 1199:1 1200:1 1203:1 1206:1 1207:1 1210:1 1212:1 1219:1 1220:1 1221:1 1222:1 1223:1 1226:1 1248:1 1249:1 1253:1 1254:1 1258:1 1261:1 1262:1 1267:1 1268:1 1276:1 1277:1 1280:1 1282:1 1284:1 1286:1 1290:1 1292:1 1294:1 1295:1 1296:1 1297:1 1300:1 1301:1 1305:1 1306:1 1307:1 1310:1 1311:1 1319:1 1320:1 1321:1 1322:1 1325:1 1327:1 1331:1 1332:1 1333:1 1335:1 1336:1 1337:1 1338:1 1339:1 1340:1 1341:1 1342:1 1345:1 1348:1 1349:1 1350:1 1353:1 1360:1 1361:1 1362:1 1363:1 1364:1 1365:1 1366:1 1369:1 1374:1 1375:1 1376:1 1377:1 1383:1 1384:1 1394:1 1409:1 1414:1 1416:1 1419:1 1427:1 1428:1 1429:1 1433:1 1436:1 1446:1 1449:1 1451:1 1452:1 1453:1 1456:1 1458:1 1459:1 1462:1 1463:1 1471:1 1493:1 1496:1 1500:1 1501:1 
1.063393718848601 -0.5361755258072272 0 0 0 0 0 0 -0.09366395645088943 -0.4335542365904841 0 17:1 18:1 20:1 105:1 114:1 124:1 153:1 161:1 182:1 189:1 227:1 228:1 229:1 253:1 260:1 272:1 299:1 325:1 345:1 370:1 373:1 374:1 376:1 388:1 396:1 419:1 430:1 433:1 436:1 481:1 489:1 503:1 524:1 546:1 567:1 568:1 577:1 583:1 593:1 597:1 598:1 608:1 611:1 612:1 613:1 616:1 620:1 621:1 622:1 638:1 641:1 643:1 668:1 682:1 683:1 710:1 728:1 735:1 757:1 808:1 817:1 818:1 861:1 889:1 905:1 910:1 931:1 933:1 938:1 940:1 949:1 950:1 965:1 970:1 972:1 988:1 992:1 993:1 1001:1 1011:1 1049:1 1061:1 1079:1 1117:1 1137:1 1150:1 1159:1 1196:1 1203:1 1225:1 1262:1 1283:1 1295:1 1310:1 1311:1 1319:1 1320:1 1338:1 1351:1 1357:1 1363:1 1364:1 1374:1 1375:1 1433:1 1446:1 
0.970975550752067 -0.9051296216302908 0 0 0 0 0 0 0 -0.06584592912177649 0 4:1 10:1 11:1 17:1 19:1 20:1 21:1 23:1 28:1 29:1 30:1 42:1 67:1 78:1 79:1 96:1 105:1 114:1 124:1 146:1 153:1 161:1 172:1 182:1 189:1 203:1 227:1 228:1 229:1 253:1 260:1 272:1 299:1 325:1 327:1 345:1 362:1 370:1 373:1 374:1 376:1 385:1 388:1 389:1 391:1 396:1 404:1 413:1 417:1 419:1 425:1 430:1 433:1 434:1 450:1 464:1 481:1 483:1 489:1 497:1 500:1 503:1 507:1 511:1 512:1 513:1 520:1 523:1 524:1 527:1 529:1 545:1 561:1 562:1 567:1 568:1 577:1 593:1 596:1 597:1 598:1 600:1 608:1 611:1 612:1 613:1 616:1 620:1 621:1 622:1 641:1 643:1 668:1 682:1 683:1 684:1 698:1 700:1 706:1 707:1 708:1 710:1 716:1 718:1 728:1 732:1 734:1 735:1 747:1 753:1 754:1 757:1 761:1 765:1 767:1 768:1 808:1 817:1 818:1 849:1 852:1 861:1 864:1 868:1 871:1 883:1 889:1 901:1 905:1 910:1 912:1 930:1 931:1 946:1 949:1 950:1 965:1 974:1 988:1 989:1 992:1 993:1 1000:1 1001:1 1002:1 1008:1 1015:1 1038:1 1040:1 1049:1 1061:1 1079:1 1080:1 1090:1 1117:1 1121:1 1137:1 1139:1 1150:1 1155:1 1159:1 1160:1 1162:1 1166:1 1172:1 1173:1 1176:1 1178:1 1180:1 1191:1 1194:1 1196:1 1200:1 1203:1 1219:1 1221:1 1222:1 1224:1 1225:1 1248:1 1258:1 1262:1 1295:1 1296:1 1301:1 1302:1 1310:1 1311:1 1319:1 1320:1 1321:1 1327:1 1331:1 1332:1 1335:1 1338:1 1349:1 1353:1 1357:1 1360:1 1362:1 1364:1 1366:1 1367:1 1374:1 1375:1 1376:1 1377:1 1428:1 1433:1 1446:1 1448:1 1455:1 1459:1 1462:1 1463:1 
1.378333585967138 -0.2557580806989433 0 0 0 0 0 0 -0.6140672667026524 -0.4044499556521154 -0.1040582829134274 2:1 10:1 24:1 25:1 124:1 153:1 161:1 189:1 203:1 227:1 229:1 253:1 260:1 272:1 325:1 373:1 374:1 376:1 384:1 396:1 431:1 481:1 489:1 503:1 511:1 523:1 524:1 527:1 546:1 592:1 593:1 597:1 598:1 601:1 607:1 608:1 611:1 612:1 613:1 620:1 621:1 622:1 641:1 643:1 663:1 668:1 682:1 708:1 710:1 716:1 760:1 765:1 808:1 817:1 818:1 889:1 902:1 905:1 931:1 934:1 950:1 993:1 997:1 1001:1 1040:1 1049:1 1079:1 1083:1 1093:1 1117:1 1131:1 1148:1 1149:1 1175:1 1192:1 1203:1 1222:1 1225:1 1280:1 1293:1 1295:1 1310:1 1331:1 1337:1 1364:1 1374:1 1419:1 1432:1 1446:1 1455:1 1462:1 1463:1 
2 -0.4519880118984062 0 0 0 0 -0.397880763253036 0 -1.150131224848558 0 0 2:1 153:1 161:1 182:1 203:1 208:1 227:1 229:1 259:1 272:1 299:1 325:1 373:1 374:1 419:1 449:1 489:1 524:1 539:1 593:1 596:1 598:1 607:1 608:1 611:1 612:1 613:1 621:1 622:1 643:1 668:1 682:1 700:1 708:1 710:1 808:1 817:1 830:1 888:1 889:1 905:1 910:1 911:1 928:1 988:1 993:1 997:1 1079:1 1083:1 1104:1 1226:1 1283:1 1310:1 1311:1 1336:1 1364:1 1374:1 1433:1 1446:1 1463:1 
1.506144858909471 -0.581467000128464 -0.5004571105210277 -0.08515302135199516 0 0 -0.04900585446986134 0 -0.1769626882309566 -0.1130991842071659 0 2:1 4:1 24:1 98:1 99:1 105:1 153:1 203:1 208:1 259:1 270:1 325:1 359:1 370:1 373:1 374:1 376:1 383:1 415:1 417:1 433:1 436:1 489:1 496:1 503:1 524:1 592:1 593:1 596:1 612:1 613:1 621:1 622:1 643:1 682:1 684:1 685:1 754:1 808:1 817:1 882:1 889:1 905:1 910:1 933:1 950:1 992:1 1028:1 1079:1 1096:1 1138:1 1150:1 1153:1 1154:1 1160:1 1191:1 1219:1 1221:1 1225:1 1253:1 1262:1 1280:1 1348:1 1362:1 1364:1 1428:1 1433:1 1443:1 1459:1 1493:1 
0.7714697630789698 -0.7714697630789698 0 0 0 0 0 0 0 0 0 2:1 4:1 24:1 27:1 30:1 48:1 51:1 55:1 84:1 98:1 99:1 114:1 153:1 189:1 203:1 208:1 209:1 259:1 269:1 270:1 325:1 373:1 374:1 376:1 384:1 385:1 387:1 396:1 415:1 431:1 481:1 489:1 490:1 503:1 511:1 524:1 546:1 568:1 593:1 596:1 597:1 598:1 611:1 612:1 613:1 621:1 622:1 643:1 682:1 691:1 708:1 710:1 726:1 735:1 764:1 808:1 817:1 818:1 829:1 830:1 846:1 859:1 863:1 864:1 870:1 882:1 888:1 889:1 901:1 905:1 910:1 934:1 938:1 970:1 972:1 992:1 993:1 997:1 1001:1 1028:1 1039:1 1061:1 1079:1 1095:1 1096:1 1120:1 1121:1 1130:1 1136:1 1150:1 1155:1 1171:1 1175:1 1177:1 1180:1 1185:1 1196:1 1207:1 1219:1 1220:1 1221:1 1248:1 1254:1 1262:1 1280:1 1282:1 1287:1 1295:1 1310:1 1327:1 1342:1 1349:1 1362:1 1366:1 1384:1 1386:1 1428:1 1431:1 1433:1 1441:1 1442:1 1462:1 1463:1 1493:1 
0.6308738506645182 -0.630873850664518 0 0 0 0 0 0 0 0 0 4:1 10:1 11:1 17:1 20:1 21:1 23:1 24:1 25:1 27:1 29:1 30:1 105:1 114:1 153:1 189:1 203:1 208:1 215:1 228:1 229:1 253:1 259:1 270:1 271:1 272:1 299:1 325:1 359:1 365:1 370:1 373:1 374:1 376:1 383:1 385:1 387:1 389:1 391:1 396:1 413:1 415:1 417:1 436:1 441:1 451:1 463:1 481:1 483:1 485:1 489:1 496:1 497:1 500:1 503:1 504:1 507:1 511:1 512:1 513:1 517:1 518:1 523:1 524:1 529:1 530:1 541:1 543:1 567:1 568:1 592:1 593:1 596:1 597:1 598:1 600:1 608:1 611:1 612:1 613:1 616:1 620:1 621:1 622:1 638:1 639:1 640:1 641:1 643:1 662:1 663:1 668:1 682:1 683:1 684:1 685:1 698:1 700:1 708:1 710:1 726:1 733:1 734:1 735:1 747:1 762:1 763:1 765:1 768:1 787:1 808:1 816:1 817:1 824:1 829:1 830:1 840:1 844:1 845:1 854:1 857:1 859:1 860:1 863:1 864:1 868:1 870:1 871:1 889:1 901:1 905:1 910:1 911:1 912:1 914:1 930:1 931:1 940:1 949:1 950:1 970:1 974:1 988:1 992:1 993:1 1001:1 1008:1 1011:1 1028:1 1032:1 1034:1 1038:1 1047:1 1049:1 1052:1 1061:1 1066:1 1070:1 1079:1 1087:1 1094:1 1095:1 1096:1 1113:1 1117:1 1120:1 1125:1 1129:1 1135:1 1136:1 1138:1 1150:1 1156:1 1160:1 1166:1 1171:1 1172:1 1173:1 1176:1 1178:1 1180:1 1191:1 1192:1 1196:1 1203:1 1219:1 1220:1 1224:1 1225:1 1234:1 1267:1 1270:1 1282:1 1287:1 1295:1 1300:1 1302:1 1310:1 1311:1 1319:1 1320:1 1327:1 1332:1 1339:1 1341:1 1342:1 1345:1 1349:1 1357:1 1360:1 1361:1 1362:1 1363:1 1364:1 1365:1 1366:1 1367:1 1369:1 1375:1 1376:1 1377:1 1379:1 1384:1 1414:1 1419:1 1428:1 1431:1 1433:1 1441:1 1442:1 1446:1 1451:1 1452:1 1455:1 1462:1 1463:1 1496:1 
0.4530379130518327 -0.4530379130518327 0 0 0 0 0 0 0 0 0 2:1 4:1 10:1 11:1 17:1 20:1 21:1 23:1 24:1 27:1 28:1 29:1 30:1 48:1 96:1 98:1 99:1 153:1 189:1 203:1 208:1 221:1 227:1 253:1 259:1 270:1 325:1 365:1 370:1 373:1 374:1 376:1 381:1 383:1 384:1 387:1 388:1 396:1 415:1 431:1 433:1 434:1 436:1 443:1 464:1 481:1 489:1 496:1 503:1 507:1 511:1 513:1 518:1 523:1 524:1 529:1 546:1 562:1 567:1 568:1 573:1 592:1 593:1 595:1 596:1 597:1 598:1 600:1 607:1 608:1 611:1 612:1 613:1 620:1 621:1 622:1 641:1 643:1 659:1 663:1 668:1 673:1 682:1 683:1 684:1 691:1 700:1 708:1 710:1 728:1 735:1 747:1 760:1 761:1 762:1 763:1 764:1 765:1 769:1 808:1 814:1 816:1 817:1 818:1 845:1 846:1 854:1 859:1 863:1 864:1 868:1 870:1 882:1 889:1 898:1 900:1 902:1 905:1 910:1 919:1 928:1 931:1 933:1 934:1 946:1 949:1 950:1 970:1 972:1 974:1 988:1 992:1 993:1 997:1 1001:1 1011:1 1032:1 1039:1 1049:1 1052:1 1055:1 1061:1 1079:1 1093:1 1094:1 1096:1 1104:1 1117:1 1120:1 1121:1 1129:1 1138:1 1150:1 1155:1 1156:1 1157:1 1160:1 1171:1 1175:1 1176:1 1178:1 1192:1 1196:1 1201:1 1203:1 1207:1 1219:1 1221:1 1224:1 1225:1 1254:1 1262:1 1267:1 1280:1 1282:1 1283:1 1285:1 1287:1 1290:1 1295:1 1301:1 1302:1 1310:1 1320:1 1321:1 1327:1 1331:1 1341:1 1348:1 1349:1 1353:1 1356:1 1357:1 1360:1 1361:1 1362:1 1363:1 1365:1 1366:1 1367:1 1369:1 1374:1 1376:1 1377:1 1384:1 1414:1 1419:1 1428:1 1433:1 1441:1 1442:1 1443:1 1452:1 1455:1 1462:1 1463:1 1493:1 1496:1 
0.9069696934908593 -0.9069696934908593 0 0 0 0 0 0 0 0 0 4:1 10:1 11:1 20:1 21:1 23:1 24:1 25:1 29:1 30:1 31:1 48:1 105:1 114:1 126:1 153:1 189:1 203:1 208:1 215:1 227:1 259:1 270:1 271:1 299:1 325:1 333:1 373:1 374:1 376:1 387:1 388:1 389:1 392:1 396:1 413:1 425:1 430:1 436:1 461:1 463:1 481:1 489:1 497:1 500:1 503:1 511:1 512:1 513:1 524:1 529:1 545:1 554:1 561:1 567:1 568:1 593:1 596:1 597:1 598:1 608:1 611:1 612:1 613:1 614:1 616:1 620:1 621:1 622:1 643:1 647:1 660:1 663:1 668:1 682:1 698:1 700:1 708:1 726:1 734:1 754:1 757:1 760:1 761:1 765:1 768:1 769:1 808:1 814:1 833:1 868:1 870:1 882:1 889:1 901:1 902:1 905:1 910:1 911:1 912:1 919:1 931:1 933:1 949:1 950:1 962:1 992:1 1000:1 1002:1 1011:1 1028:1 1034:1 1040:1 1044:1 1066:1 1079:1 1095:1 1104:1 1113:1 1121:1 1130:1 1135:1 1136:1 1138:1 1150:1 1154:1 1155:1 1157:1 1160:1 1171:1 1172:1 1173:1 1176:1 1177:1 1192:1 1196:1 1200:1 1203:1 1211:1 1219:1 1220:1 1221:1 1225:1 1226:1 1267:1 1286:1 1290:1 1295:1 1301:1 1310:1 1349:1 1351:1 1356:1 1362:1 1363:1 1364:1 1365:1 1366:1 1369:1 1374:1 1377:1 1386:1 1419:1 1433:1 1452:1 1455:1 1493:1 
0.5262810256680586 -0.5178046787786655 0 0 0 0 0 0 0 -0.008476346889392991 0 2:1 4:1 7:1 10:1 11:1 17:1 18:1 19:1 20:1 21:1 23:1 24:1 27:1 28:1 29:1 30:1 45:1 48:1 55:1 56:1 67:1 78:1 79:1 96:1 98:1 99:1 105:1 153:1 161:1 189:1 203:1 204:1 208:1 227:1 229:1 253:1 257:1 259:1 261:1 270:1 271:1 272:1 299:1 325:1 346:1 351:1 359:1 365:1 370:1 373:1 374:1 376:1 381:1 383:1 384:1 385:1 389:1 391:1 392:1 393:1 395:1 396:1 413:1 415:1 420:1 427:1 430:1 431:1 433:1 434:1 436:1 443:1 450:1 461:1 463:1 477:1 479:1 481:1 485:1 489:1 494:1 496:1 501:1 503:1 504:1 507:1 511:1 512:1 518:1 520:1 523:1 524:1 530:1 539:1 546:1 568:1 573:1 577:1 592:1 593:1 596:1 597:1 598:1 600:1 606:1 608:1 611:1 612:1 613:1 614:1 616:1 620:1 621:1 622:1 638:1 641:1 643:1 647:1 659:1 662:1 663:1 668:1 673:1 681:1 682:1 698:1 700:1 705:1 708:1 710:1 716:1 721:1 726:1 728:1 734:1 735:1 747:1 760:1 761:1 764:1 765:1 767:1 768:1 787:1 806:1 808:1 816:1 817:1 844:1 845:1 846:1 852:1 854:1 857:1 859:1 860:1 863:1 864:1 868:1 870:1 871:1 877:1 882:1 888:1 889:1 901:1 902:1 905:1 910:1 912:1 919:1 930:1 931:1 933:1 934:1 940:1 949:1 950:1 951:1 970:1 972:1 974:1 978:1 986:1 988:1 992:1 993:1 997:1 1001:1 1008:1 1028:1 1036:1 1038:1 1040:1 1044:1 1055:1 1061:1 1062:1 1066:1 1079:1 1093:1 1094:1 1095:1 1096:1 1117:1 1120:1 1121:1 1129:1 1130:1 1135:1 1136:1 1137:1 1143:1 1147:1 1148:1 1149:1 1150:1 1155:1 1156:1 1157:1 1160:1 1162:1 1166:1 1167:1 1168:1 1171:1 1172:1 1173:1 1175:1 1176:1 1177:1 1178:1 1180:1 1192:1 1196:1 1200:1 1203:1 1219:1 1220:1 1221:1 1225:1 1248:1 1258:1 1262:1 1267:1 1268:1 1274:1 1280:1 1286:1 1290:1 1293:1 1295:1 1300:1 1301:1 1302:1 1310:1 1319:1 1320:1 1321:1 1322:1 1327:1 1331:1 1332:1 1336:1 1338:1 1348:1 1349:1 1351:1 1353:1 1357:1 1360:1 1361:1 1362:1 1363:1 1364:1 1365:1 1366:1 1367:1 1369:1 1374:1 1375:1 1376:1 1377:1 1384:1 1414:1 1415:1 1419:1 1428:1 1429:1 1431:1 1432:1 1433:1 1441:1 1446:1 1451:1 1452:1 1455:1 1459:1 1462:1 1463:1 1471:1 1493:1 1496:1 
1.029817815779669 -1.029817815779669 0 0 0 0 0 0 0 0 0 1:1 3:1 4:1 5:1 8:1 10:1 11:1 16:1 17:1 19:1 20:1 21:1 24:1 25:1 27:1 28:1 29:1 30:1 31:1 35:1 36:1 38:1 40:1 41:1 42:1 49:1 50:1 53:1 54:1 55:1 56:1 58:1 60:1 61:1 63:1 65:1 67:1 70:1 72:1 75:1 76:1 81:1 85:1 89:1 91:1 93:1 103:1 105:1 106:1 107:1 112:1 114:1 117:1 119:1 120:1 123:1 124:1 125:1 126:1 127:1 128:1 129:1 131:1 132:1 133:1 134:1 137:1 138:1 139:1 140:1 142:1 143:1 147:1 150:1 151:1 152:1 155:1 158:1 161:1 166:1 167:1 168:1 169:1 170:1 171:1 172:1 173:1 177:1 180:1 182:1 185:1 189:1 190:1 191:1 192:1 193:1 195:1 196:1 198:1 199:1 202:1 203:1 205:1 206:1 208:1 209:1 210:1 213:1 214:1 216:1 220:1 221:1 223:1 227:1 228:1 229:1 230:1 232:1 235:1 236:1 240:1 241:1 242:1 243:1 246:1 249:1 250:1 252:1 253:1 254:1 255:1 256:1 259:1 263:1 266:1 267:1 268:1 272:1 274:1 275:1 276:1 277:1 279:1 280:1 283:1 284:1 287:1 290:1 292:1 293:1 294:1 299:1 301:1 303:1 309:1 310:1 311:1 317:1 318:1 319:1 320:1 321:1 322:1 324:1 325:1 326:1 330:1 331:1 332:1 334:1 335:1 336:1 338:1 340:1 341:1 345:1 346:1 365:1 370:1 373:1 374:1 376:1 383:1 384:1 385:1 387:1 389:1 391:1 392:1 396:1 413:1 415:1 417:1 430:1 433:1 434:1 436:1 440:1 444:1 461:1 464:1 471:1 477:1 481:1 489:1 490:1 496:1 497:1 503:1 504:1 511:1 512:1 513:1 517:1 523:1 524:1 527:1 529:1 532:1 545:1 547:1 549:1 567:1 577:1 593:1 596:1 597:1 598:1 600:1 604:1 607:1 608:1 611:1 612:1 613:1 616:1 620:1 621:1 622:1 641:1 643:1 649:1 650:1 654:1 662:1 663:1 664:1 668:1 673:1 676:1 682:1 683:1 686:1 691:1 692:1 695:1 698:1 700:1 704:1 705:1 708:1 710:1 728:1 732:1 734:1 735:1 742:1 747:1 761:1 763:1 765:1 767:1 768:1 769:1 770:1 773:1 776:1 783:1 784:1 787:1 788:1 797:1 808:1 817:1 818:1 829:1 830:1 846:1 851:1 857:1 859:1 861:1 863:1 864:1 868:1 870:1 882:1 883:1 889:1 901:1 902:1 903:1 905:1 908:1 910:1 911:1 912:1 918:1 926:1 929:1 930:1 931:1 933:1 934:1 938:1 940:1 941:1 942:1 946:1 949:1 950:1 970:1 974:1 978:1 988:1 992:1 993:1 996:1 1000:1 1001:1 1002:1 1003:1 1004:1 1007:1 1008:1 1009:1 1011:1 1015:1 1020:1 1021:1 1023:1 1028:1 1036:1 1037:1 1039:1 1049:1 1056:1 1061:1 1066:1 1069:1 1071:1 1074:1 1075:1 1079:1 1091:1 1094:1 1095:1 1096:1 1097:1 1108:1 1117:1 1120:1 1121:1 1127:1 1137:1 1138:1 1143:1 1145:1 1148:1 1149:1 1150:1 1152:1 1156:1 1159:1 1160:1 1166:1 1171:1 1172:1 1173:1 1176:1 1177:1 1178:1 1180:1 1191:1 1192:1 1195:1 1196:1 1198:1 1199:1 1203:1 1210:1 1219:1 1220:1 1221:1 1222:1 1223:1 1225:1 1248:1 1253:1 1254:1 1258:1 1262:1 1267:1 1277:1 1280:1 1286:1 1290:1 1291:1 1292:1 1293:1 1295:1 1297:1 1300:1 1301:1 1302:1 1305:1 1306:1 1310:1 1319:1 1321:1 1322:1 1326:1 1327:1 1328:1 1331:1 1340:1 1345:1 1346:1 1348:1 1349:1 1353:1 1357:1 1360:1 1361:1 1362:1 1363:1 1364:1 1365:1 1366:1 1374:1 1375:1 1378:1 1379:1 1382:1 1383:1 1384:1 1386:1 1394:1 1409:1 1419:1 1427:1 1428:1 1429:1 1432:1 1433:1 1436:1 1441:1 1442:1 1448:1 1449:1 1451:1 1452:1 1453:1 1459:1 1462:1 1471:1 1493:1 1500:1 1501:1 
0.3888124362780909 -0.3888124362780909 0 0 0 0 0 0 0 0 0 2:1 4:1 10:1 11:1 17:1 18:1 20:1 23:1 24:1 25:1 27:1 30:1 37:1 48:1 51:1 55:1 75:1 96:1 98:1 99:1 105:1 153:1 161:1 182:1 189:1 203:1 208:1 212:1 221:1 227:1 229:1 253:1 257:1 259:1 270:1 291:1 299:1 317:1 325:1 345:1 365:1 370:1 373:1 374:1 376:1 381:1 383:1 385:1 387:1 388:1 390:1 393:1 396:1 413:1 415:1 417:1 419:1 430:1 431:1 433:1 436:1 440:1 461:1 463:1 481:1 483:1 485:1 489:1 494:1 496:1 500:1 503:1 504:1 507:1 511:1 512:1 513:1 517:1 518:1 523:1 524:1 527:1 530:1 546:1 549:1 567:1 568:1 583:1 592:1 593:1 596:1 597:1 598:1 600:1 604:1 608:1 611:1 612:1 613:1 620:1 621:1 622:1 638:1 639:1 641:1 643:1 649:1 662:1 663:1 668:1 673:1 682:1 683:1 684:1 685:1 700:1 702:1 705:1 708:1 710:1 735:1 754:1 760:1 761:1 763:1 764:1 765:1 768:1 808:1 813:1 814:1 816:1 817:1 823:1 830:1 844:1 845:1 846:1 852:1 857:1 859:1 860:1 863:1 864:1 868:1 870:1 871:1 877:1 880:1 889:1 901:1 905:1 910:1 911:1 912:1 918:1 919:1 928:1 930:1 931:1 933:1 934:1 949:1 950:1 951:1 970:1 972:1 974:1 978:1 986:1 988:1 992:1 993:1 997:1 1001:1 1011:1 1028:1 1036:1 1047:1 1049:1 1052:1 1055:1 1061:1 1066:1 1069:1 1079:1 1083:1 1093:1 1094:1 1095:1 1096:1 1104:1 1113:1 1117:1 1120:1 1121:1 1125:1 1129:1 1130:1 1135:1 1136:1 1138:1 1143:1 1149:1 1150:1 1155:1 1156:1 1159:1 1160:1 1166:1 1167:1 1168:1 1171:1 1172:1 1173:1 1175:1 1176:1 1177:1 1178:1 1180:1 1191:1 1192:1 1196:1 1203:1 1219:1 1220:1 1221:1 1222:1 1224:1 1225:1 1226:1 1248:1 1258:1 1261:1 1262:1 1267:1 1273:1 1275:1 1280:1 1282:1 1283:1 1287:1 1290:1 1295:1 1300:1 1301:1 1302:1 1305:1 1306:1 1310:1 1319:1 1320:1 1327:1 1331:1 1333:1 1339:1 1341:1 1342:1 1348:1 1349:1 1350:1 1351:1 1353:1 1357:1 1360:1 1362:1 1363:1 1364:1 1365:1 1366:1 1367:1 1369:1 1374:1 1375:1 1376:1 1377:1 1379:1 1384:1 1386:1 1414:1 1419:1 1425:1 1428:1 1431:1 1432:1 1433:1 1441:1 1442:1 1443:1 1446:1 1449:1 1451:1 1452:1 1455:1 1459:1 1462:1 1463:1 1496:1 
0.3307671221847477 -0.3307671221847477 0 0 0 0 0 0 0 0 0 2:1 4:1 10:1 11:1 17:1 18:1 20:1 21:1 23:1 24:1 25:1 27:1 29:1 48:1 55:1 98:1 99:1 153:1 189:1 203:1 208:1 227:1 229:1 253:1 257:1 259:1 261:1 270:1 272:1 291:1 299:1 325:1 359:1 365:1 370:1 373:1 374:1 376:1 381:1 383:1 385:1 387:1 388:1 391:1 392:1 393:1 396:1 413:1 415:1 425:1 431:1 434:1 436:1 443:1 477:1 481:1 485:1 489:1 494:1 503:1 507:1 511:1 512:1 513:1 517:1 518:1 523:1 524:1 528:1 529:1 539:1 546:1 567:1 568:1 573:1 577:1 592:1 593:1 596:1 597:1 598:1 600:1 607:1 608:1 611:1 612:1 613:1 614:1 616:1 620:1 621:1 622:1 638:1 641:1 643:1 663:1 668:1 682:1 683:1 684:1 691:1 698:1 700:1 708:1 710:1 721:1 726:1 728:1 735:1 757:1 760:1 761:1 762:1 763:1 764:1 765:1 767:1 808:1 814:1 816:1 817:1 818:1 824:1 846:1 852:1 854:1 857:1 859:1 863:1 870:1 871:1 877:1 880:1 882:1 889:1 894:1 898:1 900:1 902:1 905:1 910:1 911:1 912:1 930:1 931:1 933:1 934:1 940:1 946:1 949:1 950:1 970:1 972:1 992:1 993:1 997:1 1001:1 1011:1 1038:1 1047:1 1049:1 1052:1 1055:1 1061:1 1069:1 1070:1 1079:1 1085:1 1087:1 1093:1 1094:1 1095:1 1096:1 1104:1 1117:1 1120:1 1121:1 1129:1 1130:1 1136:1 1137:1 1149:1 1150:1 1155:1 1156:1 1160:1 1167:1 1168:1 1171:1 1172:1 1173:1 1175:1 1180:1 1191:1 1192:1 1196:1 1198:1 1203:1 1219:1 1220:1 1221:1 1224:1 1225:1 1248:1 1253:1 1254:1 1262:1 1267:1 1273:1 1280:1 1282:1 1287:1 1290:1 1295:1 1300:1 1301:1 1302:1 1306:1 1310:1 1311:1 1319:1 1320:1 1321:1 1322:1 1327:1 1331:1 1333:1 1337:1 1338:1 1346:1 1348:1 1349:1 1353:1 1360:1 1361:1 1362:1 1363:1 1364:1 1366:1 1367:1 1369:1 1374:1 1375:1 1376:1 1377:1 1379:1 1384:1 1386:1 1419:1 1428:1 1433:1 1442:1 1443:1 1446:1 1448:1 1451:1 1459:1 1462:1 1463:1 1493:1 1496:1 
0.4838960319402503 -0.297426464378479 -0.1332640162856698 0 0 0 -0.0532055512761016 0 0 0 0 4:1 10:1 11:1 20:1 21:1 23:1 24:1 25:1 29:1 30:1 48:1 105:1 114:1 126:1 153:1 189:1 203:1 208:1 212:1 215:1 227:1 259:1 270:1 271:1 299:1 325:1 333:1 373:1 374:1 376:1 387:1 389:1 392:1 413:1 425:1 430:1 436:1 461:1 463:1 481:1 489:1 497:1 500:1 503:1 511:1 512:1 513:1 524:1 529:1 545:1 554:1 561:1 567:1 568:1 593:1 596:1 597:1 598:1 608:1 611:1 612:1 613:1 614:1 616:1 620:1 621:1 622:1 643:1 647:1 660:1 663:1 668:1 682:1 698:1 708:1 726:1 734:1 754:1 757:1 760:1 761:1 765:1 768:1 769:1 808:1 814:1 833:1 868:1 870:1 882:1 889:1 901:1 902:1 905:1 910:1 911:1 912:1 919:1 931:1 933:1 949:1 950:1 962:1 992:1 1000:1 1011:1 1028:1 1034:1 1040:1 1044:1 1066:1 1079:1 1095:1 1104:1 1113:1 1121:1 1130:1 1135:1 1138:1 1150:1 1154:1 1155:1 1157:1 1160:1 1171:1 1172:1 1176:1 1177:1 1192:1 1196:1 1200:1 1203:1 1211:1 1219:1 1220:1 1221:1 1225:1 1226:1 1267:1 1286:1 1290:1 1295:1 1301:1 1310:1 1349:1 1351:1 1356:1 1362:1 1363:1 1364:1 1365:1 1366:1 1369:1 1374:1 1377:1 1386:1 1419:1 1433:1 1452:1 1455:1 1493:1 
0.6295203769892306 -0.541762927146888 -0.001369837909054983 0 0 0 0 0 -0.08638761193328781 0 0 2:1 4:1 10:1 11:1 18:1 20:1 21:1 24:1 25:1 29:1 30:1 42:1 75:1 78:1 105:1 114:1 130:1 153:1 189:1 203:1 208:1 212:1 290:1 291:1 299:1 317:1 333:1 351:1 373:1 374:1 376:1 387:1 396:1 412:1 413:1 417:1 434:1 436:1 440:1 443:1 446:1 464:1 481:1 489:1 503:1 511:1 512:1 520:1 523:1 524:1 530:1 535:1 546:1 561:1 567:1 568:1 575:1 593:1 596:1 597:1 598:1 608:1 611:1 612:1 613:1 620:1 621:1 622:1 643:1 662:1 663:1 664:1 668:1 676:1 682:1 683:1 700:1 707:1 710:1 721:1 728:1 733:1 761:1 762:1 763:1 764:1 806:1 808:1 817:1 818:1 829:1 845:1 854:1 859:1 868:1 871:1 874:1 877:1 888:1 889:1 905:1 910:1 912:1 913:1 918:1 919:1 930:1 931:1 938:1 946:1 950:1 951:1 970:1 974:1 992:1 993:1 997:1 1000:1 1001:1 1002:1 1020:1 1038:1 1049:1 1054:1 1070:1 1079:1 1080:1 1083:1 1085:1 1090:1 1093:1 1112:1 1113:1 1117:1 1135:1 1138:1 1143:1 1160:1 1166:1 1172:1 1175:1 1176:1 1178:1 1180:1 1192:1 1196:1 1199:1 1210:1 1219:1 1221:1 1222:1 1248:1 1253:1 1254:1 1262:1 1263:1 1268:1 1271:1 1280:1 1282:1 1290:1 1300:1 1301:1 1305:1 1310:1 1319:1 1327:1 1331:1 1332:1 1336:1 1341:1 1351:1 1357:1 1360:1 1361:1 1362:1 1364:1 1367:1 1375:1 1376:1 1416:1 1428:1 1433:1 1446:1 1455:1 
1.003277638267746 -0.4173882447426123 0 0 0 0 0 -0.5270000482744308 0 0 -0.05888934525070288 2:1 4:1 11:1 18:1 19:1 20:1 21:1 23:1 24:1 25:1 27:1 29:1 40:1 42:1 78:1 79:1 100:1 105:1 124:1 130:1 153:1 189:1 203:1 208:1 229:1 299:1 370:1 373:1 374:1 376:1 383:1 385:1 396:1 431:1 433:1 436:1 446:1 464:1 481:1 483:1 489:1 494:1 503:1 507:1 524:1 527:1 541:1 570:1 592:1 593:1 596:1 597:1 598:1 601:1 607:1 608:1 611:1 612:1 613:1 620:1 621:1 622:1 641:1 643:1 668:1 682:1 710:1 716:1 717:1 718:1 728:1 735:1 761:1 764:1 768:1 808:1 817:1 830:1 845:1 859:1 861:1 863:1 889:1 898:1 902:1 905:1 910:1 912:1 934:1 940:1 946:1 950:1 962:1 963:1 972:1 974:1 986:1 992:1 993:1 997:1 1001:1 1049:1 1059:1 1069:1 1079:1 1094:1 1117:1 1129:1 1150:1 1171:1 1175:1 1185:1 1225:1 1248:1 1258:1 1280:1 1286:1 1295:1 1296:1 1310:1 1311:1 1327:1 1336:1 1357:1 1362:1 1363:1 1364:1 1428:1 1433:1 1446:1 1452:1 1462:1 
2 0 0 0 0 -0.2832755060760013 0 -1.282944916357038 0 -0.3109608316437162 -0.1228187459232439 4:1 11:1 25:1 124:1 130:1 153:1 161:1 189:1 203:1 325:1 374:1 376:1 385:1 396:1 417:1 434:1 460:1 461:1 489:1 500:1 503:1 515:1 524:1 570:1 593:1 596:1 597:1 598:1 608:1 612:1 613:1 620:1 621:1 622:1 643:1 710:1 718:1 728:1 808:1 845:1 871:1 889:1 910:1 912:1 933:1 974:1 986:1 992:1 1049:1 1079:1 1080:1 1096:1 1173:1 1177:1 1192:1 1196:1 1198:1 1294:1 1310:1 1336:1 1357:1 1362:1 1364:1 1433:1 
0.666032826853693 -0.4744790038553303 0 0 0 0 0 0 -0.05759039970843538 0 -0.1339634232899275 2:1 4:1 18:1 21:1 24:1 25:1 27:1 29:1 30:1 51:1 96:1 130:1 153:1 189:1 203:1 208:1 227:1 244:1 271:1 345:1 351:1 373:1 374:1 376:1 383:1 384:1 385:1 387:1 388:1 389:1 390:1 391:1 396:1 415:1 417:1 431:1 436:1 440:1 443:1 450:1 460:1 461:1 464:1 481:1 483:1 489:1 490:1 500:1 503:1 511:1 523:1 524:1 532:1 541:1 546:1 567:1 568:1 592:1 593:1 596:1 597:1 598:1 607:1 608:1 611:1 612:1 613:1 620:1 621:1 622:1 643:1 647:1 656:1 663:1 668:1 682:1 700:1 705:1 707:1 708:1 710:1 727:1 728:1 733:1 735:1 737:1 738:1 761:1 763:1 764:1 765:1 805:1 806:1 808:1 816:1 829:1 830:1 847:1 857:1 859:1 860:1 864:1 870:1 871:1 874:1 888:1 889:1 901:1 902:1 905:1 910:1 911:1 912:1 917:1 918:1 919:1 938:1 950:1 970:1 972:1 988:1 992:1 993:1 997:1 1000:1 1001:1 1003:1 1038:1 1040:1 1044:1 1047:1 1055:1 1059:1 1070:1 1071:1 1079:1 1080:1 1083:1 1093:1 1094:1 1095:1 1100:1 1104:1 1108:1 1111:1 1117:1 1120:1 1133:1 1135:1 1137:1 1138:1 1149:1 1150:1 1172:1 1176:1 1192:1 1196:1 1199:1 1206:1 1207:1 1258:1 1261:1 1262:1 1270:1 1273:1 1274:1 1282:1 1290:1 1291:1 1293:1 1294:1 1302:1 1306:1 1310:1 1311:1 1319:1 1321:1 1327:1 1331:1 1332:1 1337:1 1353:1 1362:1 1365:1 1366:1 1376:1 1379:1 1386:1 1419:1 1428:1 1433:1 1436:1 1451:1 1452:1 1455:1 1459:1 1462:1 1463:1 
